1.012320000000000025e-01 5.343840000000000146e+03 1.554193023797834883e+01 4.348330368921905915e+02 -8.863840663339614423e+01 1.183702320053405685e+02 -9.623903485485463705e+01 -3.741461834848822718e+02 -8.032403056960023378e+02 -5.487948654903929082e+02 4.272512168759714513e-01
1.032769999999999938e-01 5.177880000000000109e+03 1.575160326965414725e+01 4.410607379390158371e+02 -8.904763490626505984e+01 1.228223776340163340e+02 -9.597795212645262097e+01 -3.845513771172593351e+02 -8.132850773391409120e+02 -5.543183040575729592e+02 4.390671118799993611e-01
1.053629999999999983e-01 5.029180000000000291e+03 1.596226778801360169e+01 4.472048233727727506e+02 -8.937855481676196234e+01 1.272668184435701022e+02 -9.562034611319779742e+01 -3.951315128147264204e+02 -8.233131847773636309e+02 -5.597984340424026186e+02 4.511713263022695264e-01
1.074920000000000042e-01 4.897510000000000218e+03 1.617412876213366246e+01 4.532213233869252917e+02 -8.970861755593426778e+01 1.316581924939225416e+02 -9.524125838471942984e+01 -4.058907052273120257e+02 -8.333289427821625850e+02 -5.652344523599080048e+02 4.635736732519497028e-01
1.096629999999999966e-01 4.781729999999999563e+03 1.638707851054702047e+01 4.590458164990267846e+02 -9.011563797067069004e+01 1.359356895095778839e+02 -9.491724550548761385e+01 -4.168178864490313913e+02 -8.433206240649570873e+02 -5.706166933550485965e+02 4.761172438989029754e-01
1.118790000000000062e-01 4.679579999999999927e+03 1.660139494680734984e+01 4.649578729272386113e+02 -9.046316994441036741e+01 1.403799739248843821e+02 -9.451124953425437525e+01 -4.279226581290841978e+02 -8.532930858811557755e+02 -5.759465620072924139e+02 4.889813981785430252e-01
1.141390000000000043e-01 4.588729999999999563e+03 1.681695149114151633e+01 4.710148285113638735e+02 -9.075541856471566859e+01 1.450531538274735226e+02 -9.402990545461211980e+01 -4.391945223997293510e+02 -8.632300580155275611e+02 -5.812170161556809944e+02 5.021585646155645177e-01
1.164450000000000068e-01 4.505899999999999636e+03 1.703389579694925970e+01 4.772758393733053026e+02 -9.099502303601504138e+01 1.500184628067143535e+02 -9.347867607520899469e+01 -4.506382794384857107e+02 -8.731262376065607214e+02 -5.864301669701591209e+02 5.156586782978559436e-01
1.187969999999999998e-01 4.427689999999999600e+03 1.725216716041477127e+01 4.834444957557031444e+02 -9.140140071961467072e+01 1.549868902306168081e+02 -9.308119721333147822e+01 -4.622490287738020811e+02 -8.829660174932123482e+02 -5.915835546806581533e+02 5.294799439860490287e-01
1.211969999999999992e-01 4.350680000000000291e+03 1.747187250321285035e+01 4.898267653961512451e+02 -9.177966133684745387e+01 1.602722687350103001e+02 -9.264702758734284771e+01 -4.740321989857508811e+02 -8.927413641059509928e+02 -5.966792745826858209e+02 5.436322950530225739e-01
1.236450000000000049e-01 4.271460000000000036e+03 1.769290928386760697e+01 4.964719613235279212e+02 -9.209745304179362790e+01 1.659318571736185959e+02 -9.215088882428682382e+01 -4.859833543716945314e+02 -9.024346637877820285e+02 -6.017169096686296825e+02 5.581139465574360692e-01
1.261430000000000051e-01 4.187039999999999964e+03 1.791532852621092431e+01 5.033740232718326979e+02 -9.234720035009998185e+01 1.719667335201181970e+02 -9.159224617278648850e+01 -4.981075206771940316e+02 -9.120353316193010187e+02 -6.067019536524869636e+02 5.728546471717430588e-01
1.286909999999999998e-01 4.095000000000000000e+03 1.813896675815420778e+01 5.102993819747791804e+02 -9.265048721946902788e+01 1.781510913004744907e+02 -9.110039241083839556e+01 -5.103998405661679953e+02 -9.215254960298597098e+02 -6.116371657478080124e+02 5.878553032126186961e-01
1.312909999999999910e-01 3.993550000000000182e+03 1.836379844498527092e+01 5.171458357040080500e+02 -9.301618197639680830e+01 1.843908541248295023e+02 -9.068984842981633676e+01 -5.228648223936729664e+02 -9.308968719241486269e+02 -6.165272125083504307e+02 6.032158713719009135e-01
1.339430000000000065e-01 3.881909999999999854e+03 1.858958161937700382e+01 5.240663858613127104e+02 -9.327730301078611319e+01 1.908446213587815521e+02 -9.020038518079530832e+01 -5.354968905420267902e+02 -9.401361010780997276e+02 -6.213734896022397152e+02 6.189337509247054836e-01
1.366489999999999927e-01 3.760079999999999927e+03 1.881619454459322327e+01 5.309783507208882156e+02 -9.342074133437455430e+01 1.974325795343794425e+02 -8.962419080937461047e+01 -5.482988188349328311e+02 -9.492387529467839613e+02 -6.261817237939683309e+02 6.350181523135088879e-01
1.394090000000000051e-01 3.629150000000000091e+03 1.904329613826832102e+01 5.377652166859446652e+02 -9.344715054242928431e+01 2.040391301358123997e+02 -8.896620608633298843e+01 -5.612626522668964526e+02 -9.581959391744733239e+02 -6.309547458217342637e+02 6.514664737720279319e-01
1.422259999999999913e-01 3.490849999999999909e+03 1.927074217532408440e+01 5.438767881203316392e+02 -9.363919330809287089e+01 2.101141455523294894e+02 -8.850965565680274949e+01 -5.743934433357827629e+02 -9.670125353881178398e+02 -6.356982466612638518e+02 6.682939911321308379e-01
1.450990000000000058e-01 3.347710000000000036e+03 1.949802156525919017e+01 5.496720456824198209e+02 -9.367484872234116722e+01 2.160142278116352088e+02 -8.793228027862876672e+01 -5.876766534580069674e+02 -9.756851144957166753e+02 -6.404081496744646529e+02 6.854039235597665369e-01
1.480299999999999949e-01 3.202679999999999836e+03 1.972483139262792662e+01 5.550768553505101863e+02 -9.354858650914167129e+01 2.216589970558600555e+02 -8.722658200191810351e+01 -6.011103149445742702e+02 -9.842222518299594185e+02 -6.450852185812019570e+02 7.028126065206189432e-01
1.510199999999999876e-01 3.059199999999999818e+03 1.995075988864692818e+01 5.600351367694348710e+02 -9.326004653124410027e+01 2.269841990701418979e+02 -8.638856101052103043e+01 -6.146863217813420306e+02 -9.926310366159392515e+02 -6.497281050116445158e+02 7.206179010974101962e-01
1.540710000000000135e-01 2.920880000000000109e+03 2.017545749794962973e+01 5.642006593750927550e+02 -9.302244232393113066e+01 2.316348914191728738e+02 -8.562561005576353068e+01 -6.284001337015025683e+02 -1.000922788221425662e+03 -6.543364927949279490e+02 7.388283224690117557e-01
1.571839999999999904e-01 2.791380000000000109e+03 2.039849491875041920e+01 5.676973701862458483e+02 -9.274927659837617000e+01 2.357274830491453201e+02 -8.484345331508045263e+01 -6.422424358608584498e+02 -1.009107989225495089e+03 -6.589040862165596764e+02 7.574462686755273344e-01
1.603590000000000015e-01 2.673690000000000055e+03 2.061938554720622108e+01 5.707668434717278387e+02 -9.232076546600207223e+01 2.394936550909434061e+02 -8.391595328837897227e+01 -6.561995752255669458e+02 -1.017194612756499623e+03 -6.634225300434663950e+02 7.764682500685191613e-01
1.635979999999999934e-01 2.569949999999999818e+03 2.083781561777040992e+01 5.734873219853756154e+02 -9.175595009115012601e+01 2.430029572490870464e+02 -8.285604554664226384e+01 -6.702666390642924625e+02 -1.025193218510655242e+03 -6.678872896436751034e+02 7.959026941592213245e-01
1.669029999999999958e-01 2.480610000000000127e+03 2.105350188386300303e+01 5.758642140607981901e+02 -9.114224606842050491e+01 2.462541242739306426e+02 -8.174616134887574503e+01 -6.844388294775092163e+02 -1.033110269995002682e+03 -6.722954022524429547e+02 8.155752248556663586e-01
1.702750000000000097e-01 2.404789999999999964e+03 2.126614095846602126e+01 5.777052980680927021e+02 -9.069479939519790435e+01 2.490526467706574465e+02 -8.079707202027293533e+01 -6.987080968446492761e+02 -1.040946598711123897e+03 -6.766430726733311758e+02 8.356798584396277763e-01
1.737150000000000083e-01 2.340230000000000018e+03 2.147548751941412704e+01 5.795515518395683330e+02 -9.014889326584486184e+01 2.519387658380383641e+02 -7.974291337143000646e+01 -7.130681852897423596e+02 -1.048700684982510666e+03 -6.809247337344335165e+02 8.562239790967635100e-01
1.772239999999999926e-01 2.284019999999999982e+03 2.168135843526965800e+01 5.815096254252496237e+02 -8.952564074926871740e+01 2.550200160686192419e+02 -7.860680297250817716e+01 -7.275141782785635769e+02 -1.056366893857510604e+03 -6.851378216855031269e+02 8.772089821537623067e-01
1.808039999999999925e-01 2.233019999999999982e+03 2.188369430856221243e+01 5.836588531605274284e+02 -8.884271428662852088e+01 2.583793839355006980e+02 -7.741051508782324220e+01 -7.420460347839440374e+02 -1.063937317411217919e+03 -6.892840657796783717e+02 8.986421948564686790e-01
1.844570000000000098e-01 2.183980000000000018e+03 2.208249719824273427e+01 5.856830044300977534e+02 -8.834546750343420740e+01 2.617070201464941874e+02 -7.640480901080242404e+01 -7.566641049883033929e+02 -1.071400319796605118e+03 -6.933689036454854886e+02 9.205309580915191914e-01
1.881829999999999892e-01 2.133619999999999891e+03 2.227773378738117316e+01 5.878352076493575851e+02 -8.785593889132900358e+01 2.652637093426218371e+02 -7.541807119906088985e+01 -7.713615368448059826e+02 -1.078740416124299145e+03 -6.973946805695941293e+02 9.426973347012456150e-01
1.919849999999999890e-01 2.078880000000000109e+03 2.246960799860462643e+01 5.901811942884107793e+02 -8.729843529155991178e+01 2.691215482550045976e+02 -7.438245949530337953e+01 -7.861436226407058712e+02 -1.085950031967961195e+03 -7.013658370244951357e+02 9.653140484356346196e-01
1.958630000000000093e-01 2.017349999999999909e+03 2.265824297338756210e+01 5.926195854637525144e+02 -8.667149272151866057e+01 2.731828993150382416e+02 -7.330416684500599445e+01 -8.010026580375450749e+02 -1.093016702631587123e+03 -7.052856685201439859e+02 9.884049978913784784e-01
1.998199999999999976e-01 1.948210000000000036e+03 2.284398444191837996e+01 5.948814770948579280e+02 -8.605673327248960902e+01 2.771815577467328353e+02 -7.227035717223142797e+01 -8.159404796894101537e+02 -1.099935412354362370e+03 -7.091616740887917558e+02 1.011982277752978998e+00
2.038560000000000094e-01 1.872349999999999909e+03 2.302710683081420484e+01 5.966491505886136792e+02 -8.554160176881387656e+01 2.808000106887629954e+02 -7.137067007685242004e+01 -8.309452983026455968e+02 -1.106699176140212785e+03 -7.129989359789111631e+02 1.036040195310300005e+00
2.079739999999999922e-01 1.792190000000000055e+03 2.320808554178315219e+01 5.980981905566791283e+02 -8.490227500675281647e+01 2.842105757877014867e+02 -7.038135795597281685e+01 -8.460153562477511286e+02 -1.113313123650493026e+03 -7.167987897576290379e+02 1.060566316844258949e+00
2.121760000000000035e-01 1.710930000000000064e+03 2.338738245659704518e+01 5.991196175241583433e+02 -8.413401484734288260e+01 2.872968731727845011e+02 -6.929545952472351189e+01 -8.611434520071936731e+02 -1.119785564439645213e+03 -7.205586512883052137e+02 1.085404833507512601e+00
2.164619999999999878e-01 1.631789999999999964e+03 2.356539967937131408e+01 5.996572762171755357e+02 -8.323548386045595748e+01 2.899921410405756887e+02 -6.810716847585585754e+01 -8.763133409533159011e+02 -1.126123310972812988e+03 -7.242741392525614401e+02 1.110753031080136122e+00
2.208350000000000035e-01 1.557650000000000091e+03 2.374265791711321327e+01 5.993399129467260309e+02 -8.245387011931217103e+01 2.919159864020953705e+02 -6.705684857713792724e+01 -8.915184110320675472e+02 -1.132337525980587088e+03 -7.279438319140316480e+02 1.136621741389471030e+00
2.252959999999999963e-01 1.490759999999999991e+03 2.391955031316651059e+01 5.985256200588158890e+02 -8.159047991240369413e+01 2.934175718065042133e+02 -6.593832702568302295e+01 -9.067450881036207875e+02 -1.138435717246645027e+03 -7.315650582553806771e+02 1.163010050705218124e+00
2.298469999999999958e-01 1.432390000000000100e+03 2.409644502494481344e+01 5.974026705841339435e+02 -8.061110336552859224e+01 2.946765624947350943e+02 -6.471193447374815833e+01 -9.219855567565386991e+02 -1.144427610403414064e+03 -7.351305729177959165e+02 1.189922793190973049e+00
2.344900000000000040e-01 1.382490000000000009e+03 2.427361156520269958e+01 5.961176363153667808e+02 -7.953357423222686862e+01 2.958334935392938974e+02 -6.339195466248717992e+01 -9.372339507853710074e+02 -1.150319988388594311e+03 -7.386347144079584268e+02 1.217208389020831838e+00
2.392269999999999952e-01 1.339750000000000000e+03 2.445119949394235448e+01 5.946539752683877396e+02 -7.848693303587380399e+01 2.968690444538779047e+02 -6.210636868499426555e+01 -9.524860522389724338e+02 -1.156114048248816971e+03 -7.420756524333015705e+02 1.244971803726953707e+00
2.440599999999999992e-01 1.301880000000000109e+03 2.462922790555112229e+01 5.929646599414801358e+02 -7.758695326656184932e+01 2.977385364268437229e+02 -6.097135187096564835e+01 -9.677387888530751070e+02 -1.161805193831861970e+03 -7.454559505043365562e+02 1.273290985609108361e+00
2.489899999999999891e-01 1.266079999999999927e+03 2.480753871625904239e+01 5.914416470599564946e+02 -7.662975135160891682e+01 2.988363927875238915e+02 -5.978705878780667859e+01 -9.829871048353887772e+02 -1.167384361084846205e+03 -7.487810430828357084e+02 1.302163671156155500e+00
2.540200000000000236e-01 1.229500000000000000e+03 2.498590995222307143e+01 5.900936646972312474e+02 -7.561970067937291162e+01 3.001750419306720232e+02 -5.856376358793217207e+01 -9.982334742382820423e+02 -1.172846668518097204e+03 -7.520529778349601884e+02 1.331599148135082178e+00
2.591519999999999935e-01 1.189940000000000055e+03 2.516395704605427852e+01 5.888606496596586339e+02 -7.455427657172484146e+01 3.016969355405115039e+02 -5.730503068113864629e+01 -1.013476193366414691e+03 -1.178186772990846748e+03 -7.552743639091434034e+02 1.361467503904065790e+00
2.643869999999999831e-01 1.146559999999999945e+03 2.534115691012350524e+01 5.871977888131250438e+02 -7.370558567140884065e+01 3.028583620999510231e+02 -5.628705547073374049e+01 -1.028708203826558702e+03 -1.183398842557227226e+03 -7.584487463856842169e+02 1.391806157168341551e+00
2.697280000000000233e-01 1.100089999999999918e+03 2.551698241925126709e+01 5.853057608933688698e+02 -7.282481445780884144e+01 3.038603860247316106e+02 -5.526212972694409586e+01 -1.043925243498838654e+03 -1.188480457651284041e+03 -7.615816708445586301e+02 1.422735849339591407e+00
2.751770000000000049e-01 1.052240000000000009e+03 2.569083483404183710e+01 5.831698834201578165e+02 -7.183532764534014348e+01 3.046829911502827599e+02 -5.415350304923953928e+01 -1.059117575703135344e+03 -1.193431543874228282e+03 -7.646772915257483874e+02 1.454258720400745331e+00
2.807359999999999856e-01 1.005049999999999955e+03 2.586212264029345675e+01 5.807195262816489958e+02 -7.073384465896646134e+01 3.052478286614804119e+02 -5.295529280439232878e+01 -1.074275487941171832e+03 -1.198259148158990911e+03 -7.677302319411758162e+02 1.486376764710828802e+00
2.864070000000000227e-01 9.604900000000000091e+02 2.603030303775792120e+01 5.778146308051111646e+02 -6.961115112925634207e+01 3.054061977921383004e+02 -5.175392155458778376e+01 -1.089389338325937615e+03 -1.202972745085961151e+03 -7.707343959910779176e+02 1.518920377768574914e+00
2.921929999999999805e-01 9.201929999999999836e+02 2.619494678617705219e+01 5.742767140601288247e+02 -6.861992276069106822e+01 3.049740055946655843e+02 -5.069598778908088832e+01 -1.104452586469496509e+03 -1.207580791923154720e+03 -7.736862332946728884e+02 1.552004316952068308e+00
2.980960000000000276e-01 8.848410000000000082e+02 2.635571541112196314e+01 5.705915860010144343e+02 -6.752137931920967162e+01 3.044311559694218658e+02 -4.953877509645395349e+01 -1.119457332472327380e+03 -1.212087218977982957e+03 -7.765845560474670037e+02 1.585713924984786916e+00
3.041179999999999994e-01 8.537759999999999536e+02 2.651242695140542338e+01 5.668694242889185944e+02 -6.634714342708650747e+01 3.038835976681887701e+02 -4.831257120001357919e+01 -1.134397916782583934e+03 -1.216492232097353963e+03 -7.794327239364747584e+02 1.620049794427890655e+00
3.102610000000000090e-01 8.254059999999999491e+02 2.666508246993207010e+01 5.631947782802852771e+02 -6.512716808422283066e+01 3.034142393568353100e+02 -4.704827899628604371e+01 -1.149271890702734481e+03 -1.220796926861501333e+03 -7.822292640394816772e+02 1.655001011073790940e+00
3.165290000000000048e-01 7.979959999999999809e+02 2.681392763199524154e+01 5.593258801673604239e+02 -6.406155704303944276e+01 3.027829951736753173e+02 -4.594839213430909552e+01 -1.164082590794307407e+03 -1.225002918321053812e+03 -7.849740754643277114e+02 1.690340888584357160e+00
3.229230000000000156e-01 7.701380000000000337e+02 2.695931725385988997e+01 5.553880767409330019e+02 -6.304892885393967816e+01 3.021169376976802141e+02 -4.491401315332979038e+01 -1.178824808180451782e+03 -1.229106821886261287e+03 -7.876693524175487937e+02 1.726334804876967111e+00
3.294469999999999898e-01 7.409869999999999663e+02 2.710182810922325913e+01 5.514562255474759240e+02 -6.198982971641581230e+01 3.014913361289096088e+02 -4.384897385790966950e+01 -1.193497611402741541e+03 -1.233105520980544270e+03 -7.903201807963507690e+02 1.762992987400125999e+00
3.361020000000000119e-01 7.105910000000000082e+02 2.724205015222888804e+01 5.474340069412925232e+02 -6.087876487151375926e+01 3.008067538063613142e+02 -4.274949686331818555e+01 -1.208090172629624476e+03 -1.236993655393410336e+03 -7.929325662556400403e+02 1.800308757919238056e+00
3.428919999999999746e-01 6.799679999999999609e+02 2.738064068707823751e+01 5.432443124086831858e+02 -5.970440316261745295e+01 2.999824287248976589e+02 -4.160380733551836840e+01 -1.222597621640638181e+03 -1.240773146892290242e+03 -7.955071515353014320e+02 1.838118893131010845e+00
3.498189999999999911e-01 6.505109999999999673e+02 2.751813808137614714e+01 5.384666467634270930e+02 -5.871463597860933703e+01 2.985929814191384821e+02 -4.065681255080654921e+01 -1.237011497446103931e+03 -1.244450794269391054e+03 -7.980367408625521648e+02 1.876507906796975433e+00
3.568850000000000078e-01 6.231960000000000264e+02 2.765495161366480659e+01 5.335186672326499320e+02 -5.764543588153501474e+01 2.970510355826843920e+02 -3.964087782467411358e+01 -1.251324315495920473e+03 -1.248033029293804020e+03 -8.005172941922071459e+02 1.915583188332198317e+00
3.640950000000000020e-01 5.983339999999999463e+02 2.779138700637381731e+01 5.284719980046513683e+02 -5.650543641451884014e+01 2.954242988485543719e+02 -3.856237361779104589e+01 -1.265535683659216375e+03 -1.251525307568227163e+03 -8.029484314082931178e+02 1.955358642645265155e+00
3.714500000000000024e-01 5.756839999999999691e+02 2.792748990142993648e+01 5.234092101634437313e+02 -5.531077321318627327e+01 2.937910754661292572e+02 -3.743646262503727229e+01 -1.279638520539409001e+03 -1.254927234323756011e+03 -8.053326427218119079e+02 1.995708748572062152e+00
3.789540000000000131e-01 5.544769999999999754e+02 2.806316095864406179e+01 5.182771219707269665e+02 -5.415210046176503056e+01 2.920969258001503590e+02 -3.635437433435290444e+01 -1.293632723379517302e+03 -1.258237878358519083e+03 -8.076767089557117743e+02 2.036598299212350582e+00
3.866089999999999804e-01 5.337079999999999700e+02 2.819805967893540100e+01 5.128980230081373293e+02 -5.315758915774439686e+01 2.901644567589058283e+02 -3.544489469433523965e+01 -1.307515659581042200e+03 -1.261458836989885867e+03 -8.099784480528275026e+02 2.078207389930943005e+00
3.944190000000000196e-01 5.127519999999999527e+02 2.833169965673901558e+01 5.075479593085975125e+02 -5.212045157275239404e+01 2.882696295847038641e+02 -3.450282028108895815e+01 -1.321286981717142680e+03 -1.264592837793018589e+03 -8.122365934237066085e+02 2.120542540360007333e+00
4.023869999999999947e-01 4.916309999999999718e+02 2.846347588732466960e+01 5.021766729048541151e+02 -5.103555295753900367e+01 2.863599418274959589e+02 -3.352416320252036286e+01 -1.334941949700949181e+03 -1.267640464011911263e+03 -8.144514662203765738e+02 2.163494907483623830e+00
4.105159999999999920e-01 4.707880000000000109e+02 2.859278969161877271e+01 4.967376264323070245e+02 -4.990016026994975817e+01 2.843854649247804218e+02 -3.250597913988247001e+01 -1.348474019890127920e+03 -1.270601394076522638e+03 -8.166239126903702754e+02 2.206993945969995874e+00
4.188089999999999868e-01 4.508090000000000259e+02 2.871915959210396707e+01 4.910293649762045902e+02 -4.883750475597013718e+01 2.821409919527801549e+02 -3.156999551298422091e+01 -1.361876260768756310e+03 -1.273474384116999317e+03 -8.187577120666198880e+02 2.251245172976354070e+00
4.272690000000000099e-01 4.321390000000000100e+02 2.884229633745690435e+01 4.850760237964855150e+02 -4.784204813430538650e+01 2.796483805164527325e+02 -3.070801552696794090e+01 -1.375143900854782032e+03 -1.276260995110525755e+03 -8.208548517538978331e+02 2.296247853441693909e+00
4.359009999999999829e-01 4.148000000000000114e+02 2.896215650038218214e+01 4.791183767474402657e+02 -4.679340325669580380e+01 2.771461476434828342e+02 -2.979864015508859865e+01 -1.388278374347065437e+03 -1.278968467827877930e+03 -8.229099330530711995e+02 2.341857695214074386e+00
4.447059999999999902e-01 3.984080000000000155e+02 2.907885840563967150e+01 4.731866117181863842e+02 -4.571219055265123643e+01 2.746613056657209881e+02 -2.886250083352820184e+01 -1.401275988956892434e+03 -1.281601334461763827e+03 -8.249207051048625772e+02 2.388071136086014068e+00
4.536899999999999822e-01 3.825470000000000255e+02 2.919277789829280323e+01 4.672853127371955111e+02 -4.461144526623958484e+01 2.721978771180349668e+02 -2.791337645091087083e+01 -1.414139347096727988e+03 -1.284162202487378408e+03 -8.268889511704552433e+02 2.435073350226120148e+00
4.628550000000000164e-01 3.669370000000000118e+02 2.930437130542948765e+01 4.612073831496248886e+02 -4.362145110303215034e+01 2.695469886062164164e+02 -2.708207647680179520e+01 -1.426862854157167931e+03 -1.286649312680044432e+03 -8.288168042947045251e+02 2.482856442034511169e+00
4.722060000000000146e-01 3.515419999999999732e+02 2.941417803516628027e+01 4.550055994859741304e+02 -4.267759733005123479e+01 2.667612680653040798e+02 -2.630347621689528737e+01 -1.439443404865201728e+03 -1.289059374991171353e+03 -8.307100970159535791e+02 2.531177397060961010e+00
4.817449999999999788e-01 3.366560000000000059e+02 2.952264838709714212e+01 4.487904273681035079e+02 -4.169354077318259044e+01 2.639481254151800158e+02 -2.549079703413039510e+01 -1.451874455480902952e+03 -1.291391407745813694e+03 -8.325713286528443859e+02 2.580224468801915805e+00
4.914769999999999972e-01 3.224979999999999905e+02 2.963012525051493995e+01 4.425661425288124633e+02 -4.067225661655179181e+01 2.611095779068897400e+02 -2.464627301965781569e+01 -1.464155912338140752e+03 -1.293651497350022510e+03 -8.343945406790924153e+02 2.630084395105865003e+00
5.014049999999999896e-01 3.091179999999999950e+02 2.973672431394506432e+01 4.363546316152614963e+02 -3.962074649688227623e+01 2.582648004842585578e+02 -2.377623596063387268e+01 -1.476286314869709940e+03 -1.295845302404728727e+03 -8.361767939302010291e+02 2.680687020994754199e+00
5.115340000000000442e-01 2.964189999999999827e+02 2.984235263873517141e+01 4.299788348766146555e+02 -3.867761031897239832e+01 2.552355158632952055e+02 -2.301886337185324294e+01 -1.488266499963855040e+03 -1.297976292327404053e+03 -8.379185836989189511e+02 2.731836274062422909e+00
5.218679999999999986e-01 2.841630000000000109e+02 2.994670376106135734e+01 4.235364301622942094e+02 -3.778191152237445749e+01 2.521190875027201344e+02 -2.231264955882932810e+01 -1.500094884965551273e+03 -1.300044810654873800e+03 -8.396216657270920223e+02 2.783826535400507840e+00
5.324109999999999676e-01 2.722509999999999764e+02 3.004936079445871044e+01 4.171374988780534636e+02 -3.685850820580411380e+01 2.490240939069219337e+02 -2.158276019517234445e+01 -1.511768355117002784e+03 -1.302048215037414820e+03 -8.412903812978053111e+02 2.836656313556783715e+00
5.431660000000000377e-01 2.606999999999999886e+02 3.014991538336190757e+01 4.107713711213034458e+02 -3.590897664290192637e+01 2.459377552314362561e+02 -2.083081098708894530e+01 -1.523282376722929030e+03 -1.303983750328401811e+03 -8.429304562347612091e+02 2.890054634004715073e+00
5.541390000000000482e-01 2.496030000000000086e+02 3.024810619987524873e+01 4.044288406415258237e+02 -3.493741711676381811e+01 2.428495403031830620e+02 -2.006060790902126456e+01 -1.534637422044734421e+03 -1.305855034337367215e+03 -8.445384941922678763e+02 2.944229070575527185e+00
5.653329999999999744e-01 2.390430000000000064e+02 3.034381558073710394e+01 3.979658053128979418e+02 -3.404786202282133445e+01 2.396134155701316786e+02 -1.937554217241616428e+01 -1.545832192320938475e+03 -1.307667705402533102e+03 -8.461097041434478569e+02 2.999265096613464188e+00
5.767529999999999601e-01 2.289600000000000080e+02 3.043713000953689019e+01 3.914336666608243149e+02 -3.321212511425837732e+01 2.362804761772213737e+02 -1.874651041012394614e+01 -1.556867562311511847e+03 -1.309425919399859140e+03 -8.476436219429098173e+02 3.055004411710479317e+00
5.884040000000000381e-01 2.192820000000000107e+02 3.052830591084877199e+01 3.849576397323116908e+02 -3.235543029779816493e+01 2.329747878013263573e+02 -1.809874479782704881e+01 -1.567743480859106512e+03 -1.311131484432651860e+03 -8.491411339378645380e+02 3.111416504702187780e+00
6.002910000000000190e-01 2.099329999999999927e+02 3.061769860613716787e+01 3.785332237067609640e+02 -3.148306503878108131e+01 2.296906484817046135e+02 -1.743763366014399097e+01 -1.578458748301990681e+03 -1.312783792324966043e+03 -8.506040033715961499e+02 3.168722412684309653e+00
6.124180000000000179e-01 2.009319999999999879e+02 3.070563657501975996e+01 3.721568626923506145e+02 -3.059669788038905835e+01 2.264230085747111900e+02 -1.676475014994649015e+01 -1.589010384690560613e+03 -1.314380018291169108e+03 -8.520367770577893225e+02 3.226827654743714024e+00
6.247890000000000388e-01 1.923009999999999877e+02 3.079232544643480907e+01 3.657515788628709288e+02 -2.974991044848014710e+01 2.230934589524691489e+02 -1.613337691446115585e+01 -1.599396159711024438e+03 -1.315918814745222789e+03 -8.534440709874605773e+02 3.285534352776046774e+00
6.374109999999999498e-01 1.840529999999999973e+02 3.087782717452219572e+01 3.592462821114366420e+02 -2.898976988649457454e+01 2.196310863778986402e+02 -1.558980089163115501e+01 -1.609618404956159566e+03 -1.317404396455157439e+03 -8.548221901611408384e+02 3.345161992193920408e+00
6.502879999999999772e-01 1.761490000000000009e+02 3.096202949588856157e+01 3.528061854998583726e+02 -2.821264420413429264e+01 2.161999769320017322e+02 -1.503013729472998605e+01 -1.619677340029262496e+03 -1.318841920338481259e+03 -8.561674114376091893e+02 3.405647284992171286e+00
6.634240000000000137e-01 1.685579999999999927e+02 3.104471524103918512e+01 3.464334761294948066e+02 -2.742215904026826578e+01 2.128010281193273556e+02 -1.445799816549231487e+01 -1.629572597710004857e+03 -1.320234527068952048e+03 -8.574791866053864169e+02 3.466707777579168148e+00
6.768260000000000387e-01 1.612599999999999909e+02 3.112566476305523011e+01 3.401252261788338842e+02 -2.662158773500649289e+01 2.094307442558594232e+02 -1.387663510537181466e+01 -1.639305315201006806e+03 -1.321583899990673444e+03 -8.587581157299501911e+02 3.528711031413963806e+00
6.904989999999999739e-01 1.542649999999999864e+02 3.120472944286154515e+01 3.338788740721193449e+02 -2.581497400342344406e+01 2.060855709419930690e+02 -1.328993343225767809e+01 -1.648874780403213890e+03 -1.322890078508271927e+03 -8.600051127613451172e+02 3.591589417031302744e+00
7.044479999999999631e-01 1.475639999999999930e+02 3.128190589030440094e+01 3.275071477055982996e+02 -2.512814789445830144e+01 2.025777703329468977e+02 -1.282323361932140315e+01 -1.658280107519891772e+03 -1.324151618627471635e+03 -8.612228894769771159e+02 3.655063842195627188e+00
7.186789999999999567e-01 1.411469999999999914e+02 3.135732186364944951e+01 3.212028441486019688e+02 -2.443350398317438987e+01 1.990999654185530119e+02 -1.234851422041216118e+01 -1.667521120297069047e+03 -1.325366495406187823e+03 -8.624170705957129712e+02 3.719501818255714465e+00
7.331969999999999876e-01 1.349879999999999995e+02 3.143116215653846979e+01 3.149747577585411022e+02 -2.372921773616963392e+01 1.956600691535067540e+02 -1.186392130997346328e+01 -1.676597729391142366e+03 -1.326535440739547539e+03 -8.635886051965685510e+02 3.784784978030195646e+00
7.480090000000000350e-01 1.290869999999999891e+02 3.150361586318795659e+01 3.088216264237225914e+02 -2.301829303845611108e+01 1.922563847302901934e+02 -1.137241334621428379e+01 -1.685511813508322575e+03 -1.327662672096076676e+03 -8.647330754443917158e+02 3.850728563212049149e+00
7.631189999999999918e-01 1.234279999999999973e+02 3.157478522527883769e+01 3.027445495110873139e+02 -2.230338346209222777e+01 1.888890686659059952e+02 -1.087652285250936401e+01 -1.694263611690487096e+03 -1.328752004809910659e+03 -8.658482256240570223e+02 3.917650599446039106e+00
7.785360000000000058e-01 1.180100000000000051e+02 3.164468318839777439e+01 2.966776826641302023e+02 -2.162965626229619431e+01 1.854923325929348721e+02 -1.042130843173713117e+01 -1.702855900603794908e+03 -1.329806229694673902e+03 -8.669342576418854378e+02 3.985357447244424201e+00
7.942630000000000523e-01 1.128169999999999931e+02 3.171320789607329615e+01 2.905868838011284652e+02 -2.101962524817750477e+01 1.820316127873273331e+02 -1.002876051406835600e+01 -1.711287859346286496e+03 -1.330826586021923276e+03 -8.679915401904370356e+02 4.053819554427724015e+00
8.103080000000000283e-01 1.078400000000000034e+02 3.178026396341258319e+01 2.845808205557690371e+02 -2.040147033500136331e+01 1.786155608863025464e+02 -9.626954979049830996e+00 -1.719561212859609441e+03 -1.331813652764617700e+03 -8.690210390978315900e+02 4.123286263422016873e+00
8.266769999999999952e-01 1.030750000000000028e+02 3.184579221363118151e+01 2.786588932577558921e+02 -1.977828746832413032e+01 1.752430882628351867e+02 -9.218935784639919362e+00 -1.727676035090441701e+03 -1.332766661189668866e+03 -8.700241256173081865e+02 4.193416002962687905e+00
8.433779999999999610e-01 9.850990000000000180e+01 3.190981667600182448e+01 2.728195316148305665e+02 -1.915323712397514200e+01 1.719124979129182691e+02 -8.807820737297619829e+00 -1.735633314779068996e+03 -1.333684054584184196e+03 -8.710042519120260067e+02 4.264460397730961638e+00
8.604150000000000409e-01 9.413840000000000430e+01 3.197241392574728991e+01 2.670626131393563014e+02 -1.852893971663439743e+01 1.686229873587234920e+02 -8.396119517523171538e+00 -1.743432362898698329e+03 -1.334564751777040556e+03 -8.719650148145130970e+02 4.336466456891865384e+00
8.777970000000000494e-01 8.995340000000000202e+01 3.203370007027879041e+01 2.613101152485827470e+02 -1.795804142079262178e+01 1.652967332956469022e+02 -8.036355491721234756e+00 -1.751075493382028753e+03 -1.335410441040059141e+03 -8.729056993442911789e+02 4.409090847801376611e+00
8.955290000000000195e-01 8.594480000000000075e+01 3.209374000052893194e+01 2.555856929531325363e+02 -1.742367208724955674e+01 1.619573999698466480e+02 -7.711270934334770288e+00 -1.758563739124736003e+03 -1.336224326406861564e+03 -8.738230684350036199e+02 4.482755278272780863e+00
9.136199999999999877e-01 8.210809999999999320e+01 3.215255750845725657e+01 2.499504567262547994e+02 -1.688588789466904316e+01 1.586662320103897912e+02 -7.380879500604278221e+00 -1.765899822819848623e+03 -1.337009530991657357e+03 -8.747159433270284126e+02 4.557191513885199718e+00
9.320760000000000156e-01 7.843699999999999761e+01 3.221012270307912218e+01 2.444045606095656922e+02 -1.634701202175303436e+01 1.554230897613099103e+02 -7.047457692345915348e+00 -1.773084870584130840e+03 -1.337768108969293962e+03 -8.755844258294830524e+02 4.632473633095143484e+00
9.509060000000000290e-01 7.492249999999999943e+01 3.226640423189779483e+01 2.389467535352868595e+02 -1.580913869730790466e+01 1.522268521993478601e+02 -6.713082277173483270e+00 -1.780121045002581923e+03 -1.338501429629460972e+03 -8.764291361859310427e+02 4.708779734796217475e+00
9.701149999999999496e-01 7.155859999999999843e+01 3.232139328899209119e+01 2.335762779925185271e+02 -1.527429064942821846e+01 1.490764442408519130e+02 -6.379699240603112997e+00 -1.787008880311484063e+03 -1.339210149742194062e+03 -8.772505549389516091e+02 4.785687990221142663e+00
9.897129999999999539e-01 6.834059999999999491e+01 3.237513468188388543e+01 2.282431672558310822e+02 -1.477603718537466015e+01 1.459222440485749814e+02 -6.080810875441248875e+00 -1.793750529591734676e+03 -1.339894628553423672e+03 -8.780493904576418345e+02 4.863680622035380985e+00
1.009710000000000107e+00 6.526200000000000045e+01 3.242768916530016554e+01 2.229390289470867685e+02 -1.431855472972610244e+01 1.427564852962471491e+02 -5.820346588421985601e+00 -1.800347925474883596e+03 -1.340554759797557608e+03 -8.788265262956692823e+02 4.942417963281806159e+00
1.030100000000000016e+00 6.231600000000000250e+01 3.247906955529285966e+01 2.177301720648885350e+02 -1.386073911663777025e+01 1.396441706072106683e+02 -5.557023544725364417e+00 -1.806797981747912445e+03 -1.341189671484396285e+03 -8.795828850081563814e+02 5.022039692077920670e+00
1.050910000000000011e+00 5.949730000000000274e+01 3.252934196494545915e+01 2.126100906836766740e+02 -1.340378787779271441e+01 1.365808413798762331e+02 -5.292204857354931846e+00 -1.813108095504524044e+03 -1.341799412902986205e+03 -8.803214423572999294e+02 5.102611750718509143e+00
1.072140000000000093e+00 5.680140000000000100e+01 3.257848424502412144e+01 2.075799600990000897e+02 -1.294957301186055076e+01 1.335669349713989504e+02 -5.027656257552885144e+00 -1.819277114646796463e+03 -1.342383794082059694e+03 -8.810435644933166941e+02 5.183933444297980309e+00
1.093800000000000106e+00 5.422339999999999804e+01 3.262649986125263979e+01 2.026383850253451158e+02 -1.249953976910968478e+01 1.306013692468244187e+02 -4.764807082785085690e+00 -1.825307267369817282e+03 -1.342943851319395662e+03 -8.817492043658669445e+02 5.266344567891380279e+00
1.115899999999999892e+00 5.175809999999999889e+01 3.267340752037177509e+01 1.977841963388287922e+02 -1.205495454120004695e+01 1.276832947419646871e+02 -4.504903294453346696e+00 -1.831200864331256525e+03 -1.343481263587562353e+03 -8.824371591607415439e+02 5.349360919536800374e+00
1.138439999999999896e+00 4.940079999999999671e+01 3.271922251751037436e+01 1.929418681015769153e+02 -1.166689926915448083e+01 1.247368224718700134e+02 -4.298834302805929042e+00 -1.836957685781142118e+03 -1.343997578249142634e+03 -8.831062995069311228e+02 5.433481017223634524e+00
1.161440000000000028e+00 4.714699999999999847e+01 3.276399896922965382e+01 1.881836936140922489e+02 -1.128443918239822885e+01 1.218356162568513525e+02 -4.095624379096546974e+00 -1.842582589162075465e+03 -1.344494549597680816e+03 -8.837567725101323504e+02 5.518282275176953355e+00
1.184900000000000064e+00 4.499249999999999972e+01 3.280774038864105080e+01 1.835174877770148498e+02 -1.090433339708068416e+01 1.189870114893192152e+02 -3.891966382763743404e+00 -1.848075306503526008e+03 -1.344973121507300675e+03 -8.843886676921983963e+02 5.604112065965398237e+00
1.208839999999999915e+00 4.293310000000000315e+01 3.285047678931569948e+01 1.789399599534584127e+02 -1.052758387690865760e+01 1.161888274794715130e+02 -3.688941701935080975e+00 -1.853440298606122724e+03 -1.345434388811725057e+03 -8.850027432630140538e+02 5.690719117162219121e+00
1.233260000000000023e+00 4.096470000000000056e+01 3.289220305467131311e+01 1.744518144299510709e+02 -1.015543938732858820e+01 1.134413732618493924e+02 -3.487727983284748756e+00 -1.858677322409473618e+03 -1.345878819372128874e+03 -8.855992859158477586e+02 5.778276686006918794e+00
1.258170000000000011e+00 3.908359999999999701e+01 3.293293925278506151e+01 1.700514500921043748e+02 -9.788778422457381723e+00 1.107434478384521270e+02 -3.289202618615213236e+00 -1.863788414831527689e+03 -1.346306957730389513e+03 -8.861788123485395090e+02 5.866642047345618671e+00
1.283590000000000009e+00 3.728589999999999804e+01 3.297272579934284664e+01 1.657359599786474860e+02 -9.428297456236753860e+00 1.080931908041366540e+02 -3.094119338081909198e+00 -1.868777498560754339e+03 -1.346719417461613602e+03 -8.867420426525230823e+02 5.955939090194547703e+00
1.309520000000000017e+00 3.556799999999999784e+01 3.301156779271166641e+01 1.614546779830551202e+02 -9.108477541157352420e+00 1.054397336102522189e+02 -2.936835780453972422e+00 -1.873644480702534565e+03 -1.347116426190339098e+03 -8.872892073528095125e+02 6.046078476759141118e+00
1.335970000000000102e+00 3.392669999999999675e+01 3.304948225892358948e+01 1.572527995324229551e+02 -8.797935950034823094e+00 1.028288095820136334e+02 -2.785889751868055875e+00 -1.878391310324975393e+03 -1.347498363799538765e+03 -8.878207489394812910e+02 6.137085583189430871e+00
1.362959999999999949e+00 3.235860000000000269e+01 3.308649733529939851e+01 1.531373548682102808e+02 -8.490855822809985298e+00 1.002684089158778988e+02 -2.635535628434254818e+00 -1.883021558968469208e+03 -1.347865695238903754e+03 -8.883372908728541688e+02 6.228970735598483799e+00
1.390490000000000004e+00 3.086070000000000135e+01 3.312261587980588473e+01 1.491085855461216170e+02 -8.188190417342644523e+00 9.775856842125460844e+01 -2.486679043311080139e+00 -1.887535311158506602e+03 -1.348218661510452421e+03 -8.888390360930633278e+02 6.321721477878342377e+00
1.418579999999999952e+00 2.943009999999999948e+01 3.315786879565120415e+01 1.451638245879290992e+02 -7.890503390462061617e+00 9.529755818079375729e+01 -2.339945598332014765e+00 -1.891935992938681920e+03 -1.348557730224526722e+03 -8.893265846411478606e+02 6.415316159707346699e+00
1.447240000000000082e+00 2.806370000000000076e+01 3.319227295974727809e+01 1.413022532008318422e+02 -7.598412098734643294e+00 9.288492986786195615e+01 -2.195956882138865307e+00 -1.896225312565187551e+03 -1.348883279830074116e+03 -8.898003205101474578e+02 6.509835173330523084e+00
1.476480000000000015e+00 2.675880000000000081e+01 3.322584258748540265e+01 1.375228304688791354e+02 -7.312424429575548501e+00 9.052003335360691949e+01 -2.055227171786254914e+00 -1.900405009048636657e+03 -1.349195697008558454e+03 -8.902606059871699244e+02 6.605128042661391419e+00
1.506299999999999972e+00 2.551259999999999906e+01 3.325858195963636632e+01 1.338254137964031543e+02 -7.033013884679789385e+00 8.820267743831701068e+01 -1.918188662951692880e+00 -1.904475512320456119e+03 -1.349495324130997687e+03 -8.907076244445272550e+02 6.701366484968053427e+00
1.536729999999999929e+00 2.432270000000000110e+01 3.329052736933947898e+01 1.301675522682769213e+02 -6.785712150658380182e+00 8.589180052483710881e+01 -1.810430081656634327e+00 -1.908441286627300542e+03 -1.349782725025997479e+03 -8.911420182233574678e+02 6.798305804323456769e+00
1.567779999999999951e+00 2.318669999999999831e+01 3.332169292534992877e+01 1.265891814607556682e+02 -6.543588993120202701e+00 8.362775871230108748e+01 -1.704985939057087840e+00 -1.912303935471789146e+03 -1.350058334488194760e+03 -8.915640752720556748e+02 6.896336367146683521e+00
1.599450000000000038e+00 2.210219999999999985e+01 3.335208243454746935e+01 1.230923682342780836e+02 -6.305847483628362227e+00 8.141259557685050652e+01 -1.601038141946290683e+00 -1.916063902042003519e+03 -1.350322468793222697e+03 -8.919739055520753936e+02 6.994893827936135011e+00
1.631760000000000099e+00 2.106709999999999994e+01 3.338171899770933493e+01 1.196747134099746148e+02 -6.072841342619086369e+00 7.924473053133480960e+01 -1.499001612266601224e+00 -1.919724132449140143e+03 -1.350575618961827558e+03 -8.923719474390267123e+02 7.094513899278108937e+00
1.664719999999999978e+00 2.007890000000000086e+01 3.341061629671796851e+01 1.163350759107232477e+02 -5.844965183713083157e+00 7.712342576882396372e+01 -1.399287600875579685e+00 -1.923286235375736169e+03 -1.350818131468857018e+03 -8.927584450278101258e+02 7.194791624672836505e+00
1.698350000000000026e+00 1.913579999999999970e+01 3.343879581226809705e+01 1.130712680590254422e+02 -5.622458121598717717e+00 7.504725436762231539e+01 -1.302185290102127135e+00 -1.926752890206347729e+03 -1.351050413077925214e+03 -8.931337819504168465e+02 7.295971137515231852e+00
1.732660000000000089e+00 1.823590000000000089e+01 3.346626973974937869e+01 1.098826832533888478e+02 -5.405600973013132027e+00 7.301599821979404226e+01 -1.207987439598559920e+00 -1.930125664280598585e+03 -1.351272786115452391e+03 -8.934981891076498641e+02 7.398004874665657482e+00
1.767660000000000009e+00 1.737699999999999889e+01 3.349305061495457636e+01 1.067683056824307357e+02 -5.194586464162347816e+00 7.102905298361467601e+01 -1.116903896903983062e+00 -1.933406141583107456e+03 -1.351485547048395347e+03 -8.938518774320591547e+02 7.500692671616638663e+00
1.803369999999999918e+00 1.655740000000000123e+01 3.351915764499064210e+01 1.037260131795347320e+02 -4.989527434710682385e+00 6.908501953454759814e+01 -1.029094113390110143e+00 -1.936596825526686644e+03 -1.351689075424768589e+03 -8.941951552224162469e+02 7.604372566656388166e+00
1.839800000000000102e+00 1.577549999999999919e+01 3.354460245593013923e+01 1.007398972140901634e+02 -4.800568003956926511e+00 6.716839599227621704e+01 -9.547059271579814155e-01 -1.939699201218111057e+03 -1.351883692929314293e+03 -8.945281499516348731e+02 7.708623830979024483e+00
1.876970000000000027e+00 1.502940000000000076e+01 3.356940357142459419e+01 9.781681313307839787e+01 -4.621800256660541173e+00 6.528676213958463848e+01 -8.878524223015492600e-01 -1.942715659745555968e+03 -1.352069838507720533e+03 -8.948510920819185230e+02 7.813742924252216504e+00
1.914889999999999981e+00 1.431789999999999985e+01 3.359357178848833314e+01 9.496509396592425389e+01 -4.447331354716517637e+00 6.344883675687756863e+01 -8.226597227891421227e-01 -1.945647715905382256e+03 -1.352247974072820625e+03 -8.951640827943273280e+02 7.919717727974867394e+00
1.953570000000000029e+00 1.363899999999999935e+01 3.361711793267052428e+01 9.218370251303615248e+01 -4.277359158253142724e+00 6.165398745387940238e+01 -7.593521066341681891e-01 -1.948496891131130951e+03 -1.352418620000269357e+03 -8.954672263826428207e+02 8.026202089702511699e+00
1.993039999999999923e+00 1.299160000000000004e+01 3.364006476060393425e+01 8.947011486471899389e+01 -4.111941401953204789e+00 5.990058073097415559e+01 -6.980615732787365246e-01 -1.951266131756918867e+03 -1.352582490657247490e+03 -8.957608347608870645e+02 8.133592896306334197e+00
2.033300000000000107e+00 1.237400000000000055e+01 3.366241683411389829e+01 8.682426702166482357e+01 -3.951271923831213062e+00 5.818869461460077730e+01 -6.389783243467188623e-01 -1.953956141484441559e+03 -1.352740240930096206e+03 -8.960449766979992319e+02 8.241699045119730727e+00
2.074370000000000047e+00 1.178519999999999968e+01 3.368418954233420948e+01 8.424427679002950242e+01 -3.795375735512927395e+00 5.651707698057384022e+01 -5.821733458936148020e-01 -1.956569071903852318e+03 -1.352892588633712649e+03 -8.963198884179142851e+02 8.350346916175338308e+00
2.116280000000000161e+00 1.122359999999999935e+01 3.370540289929898847e+01 8.172835688774874541e+01 -3.644265193399889302e+00 5.488475230415694739e+01 -5.277265184032322587e-01 -1.959107643299783604e+03 -1.353040284484487984e+03 -8.965858273101949862e+02 8.459836315854539990e+00
2.159030000000000005e+00 1.068810000000000038e+01 3.372606123615743456e+01 7.927615827028175488e+01 -3.497996859848027995e+00 5.329153537534637053e+01 -4.756926788760280633e-01 -1.961572558967384339e+03 -1.353183782633814189e+03 -8.968427025297980890e+02 8.570017320214521561e+00
2.202650000000000219e+00 1.017759999999999998e+01 3.374618358627794379e+01 7.688576823273564287e+01 -3.356521422729061399e+00 5.173629059624396831e+01 -4.260865205411358270e-01 -1.963966148367911728e+03 -1.353323301213731838e+03 -8.970904297065941364e+02 8.680681562510793370e+00
2.247139999999999915e+00 9.690870000000000317e+00 3.376577456431826363e+01 7.455701193557179352e+01 -3.219860843537657225e+00 5.021903402746954015e+01 -3.789330475804963405e-01 -1.966289080848439426e+03 -1.353458201828740357e+03 -8.973289216996071218e+02 8.792054721155547981e+00
2.292539999999999800e+00 9.226820000000000022e+00 3.378485599140987716e+01 7.228728845731809827e+01 -3.087916874760019414e+00 4.873808038787718999e+01 -3.342149220228222695e-01 -1.968543991345163477e+03 -1.353586870017981255e+03 -8.975592854763300465e+02 8.904165053786041284e+00
2.338849999999999874e+00 8.784499999999999531e+00 3.380343215509613941e+01 7.007651945793284654e+01 -2.960671447172972481e+00 4.729353734367232676e+01 -2.919159169573257717e-01 -1.970731242623232902e+03 -1.353706561249590322e+03 -8.977841340004331414e+02 9.016678151960533683e+00
2.386099999999999888e+00 8.362890000000000157e+00 3.382151945975397211e+01 6.791563689411468374e+01 -2.842870989396371062e+00 4.587703711681965046e+01 -2.568385626050637693e-01 -1.972852628191729536e+03 -1.353815442726366655e+03 -8.980057436679944658e+02 9.129776575903777669e+00
2.434299999999999908e+00 7.961039999999999672e+00 3.383912618355479651e+01 6.581092531028173198e+01 -2.729752922455479514e+00 4.449522822270801470e+01 -2.242394350883107623e-01 -1.974909726020127209e+03 -1.353914605218765018e+03 -8.982225432052704264e+02 9.243482387810269429e+00
2.483480000000000132e+00 7.578059999999999796e+00 3.385626747706727002e+01 6.376220861550842756e+01 -2.620260525394408013e+00 4.314858248812224417e+01 -1.931191974573505943e-01 -1.976905198824872741e+03 -1.354007969418568109e+03 -8.984313570313021273e+02 9.357786768671012112e+00
2.533650000000000180e+00 7.213090000000000224e+00 3.387295095370434694e+01 6.176879339478268349e+01 -2.514399759693726644e+00 4.183675103798510264e+01 -1.635089556829786850e-01 -1.978840561673601997e+03 -1.354099900534534072e+03 -8.986313043303215409e+02 9.472418221491867740e+00
2.584830000000000183e+00 6.865310000000000024e+00 3.388918775413718265e+01 5.982936440752483520e+01 -2.412134322492971439e+00 4.055890414403815925e+01 -1.354131613444282678e-01 -1.980717429049256907e+03 -1.354193539070373845e+03 -8.988233403684080258e+02 9.587494823417371137e+00
2.637049999999999894e+00 6.533940000000000303e+00 3.390499143554057326e+01 5.794249253934054877e+01 -2.313394799221640596e+00 3.931420604493783344e+01 -1.088149471445070543e-01 -1.982537560812449783e+03 -1.354289862460673248e+03 -8.990074337978099948e+02 9.703063579881181511e+00
2.690319999999999823e+00 6.218210000000000015e+00 3.392036906062630663e+01 5.610751320636008899e+01 -2.218149561105049017e+00 3.810232686055542928e+01 -8.370831438107426137e-02 -1.984301623789493760e+03 -1.354386040709538065e+03 -8.991823453460184510e+02 9.819059809700789287e+00
2.744660000000000100e+00 5.917410000000000281e+00 3.393533080095969012e+01 5.432313548458170516e+01 -2.126338133142068987e+00 3.692243153910602871e+01 -6.007153191705736500e-02 -1.986010424836687889e+03 -1.354473796752378803e+03 -8.993518143855294511e+02 9.935438739756850879e+00
2.800110000000000099e+00 5.630840000000000067e+00 3.394989158292325016e+01 5.258774237388935546e+01 -2.037852525223640576e+00 3.577355405330056470e+01 -3.785663772954841327e-02 -1.987666085781987931e+03 -1.354545902758633247e+03 -8.995229724138408756e+02 1.005207470524048396e+01
2.856679999999999886e+00 5.357850000000000001e+00 3.396405794675022349e+01 5.090082603266273509e+01 -1.952632819349972682e+00 3.465549841577069401e+01 -1.702784759861197469e-02 -1.989270282099420228e+03 -1.354607948469129724e+03 -8.996900431368865156e+02 1.016895237556796872e+01
2.914390000000000036e+00 5.097809999999999953e+00 3.397783901156677189e+01 4.926129387150663064e+01 -1.870602099814900665e+00 3.356759219019676976e+01 2.454746642658121435e-03 -1.990824321976391047e+03 -1.354671931744120684e+03 -8.998479155407441112e+02 1.028609501740828414e+01
2.973259999999999792e+00 4.850139999999999674e+00 3.399124365669131720e+01 4.766807295701490688e+01 -1.791685250502703219e+00 3.250917414900541047e+01 2.063077087142910909e-02 -1.992328549926704682e+03 -1.354743838179219438e+03 -8.999979668065655005e+02 1.040344754536243421e+01
3.033319999999999794e+00 4.614270000000000316e+00 3.400428250311647815e+01 4.611996294554843701e+01 -1.715783903788426379e+00 3.147953275948985663e+01 3.755439189426192093e-02 -1.993784516088545388e+03 -1.354820248054747481e+03 -9.001385257782844747e+02 1.052097169350520822e+01
3.094599999999999795e+00 4.389619999999999855e+00 3.401696587448974185e+01 4.461588545499055414e+01 -1.642793831990561948e+00 3.047805756389121612e+01 5.328690689639136585e-02 -1.995194758558048306e+03 -1.354885504892450172e+03 -9.002763766446979616e+02 1.063862515406647269e+01
3.157119999999999926e+00 4.175699999999999967e+00 3.402930171521620650e+01 4.315502162801452357e+01 -1.572618655077134386e+00 2.950430263511282902e+01 6.789184792635875876e-02 -1.996561321227460212e+03 -1.354932276989958837e+03 -9.004185148072642733e+02 1.075634304344043990e+01
3.220899999999999874e+00 3.972010000000000041e+00 3.404129768407845091e+01 4.173658680836224733e+01 -1.505163746091080279e+00 2.855785518151062874e+01 8.142990200433157522e-02 -1.997884395094900583e+03 -1.354978640365999581e+03 -9.005523356918293985e+02 1.087405808578386157e+01
3.285960000000000214e+00 3.778039999999999843e+00 3.405296143649094631e+01 4.035956761849059404e+01 -1.440346809117095006e+00 2.763807032592059443e+01 9.394927333045044460e-02 -1.999161482200758655e+03 -1.355036339960761552e+03 -9.006768559470425544e+02 1.099170063902928618e+01
3.352339999999999876e+00 3.593370000000000175e+00 3.406430376078039046e+01 3.902261689126565614e+01 -1.378064507729091615e+00 2.674409182613705127e+01 1.055067904348089280e-01 -2.000395608454440435e+03 -1.355097700883465905e+03 -9.007914894782790043e+02 1.110923361795824604e+01
3.420059999999999878e+00 3.417549999999999866e+00 3.407533167868520962e+01 3.772507939284311362e+01 -1.318222155778017157e+00 2.587560414509155393e+01 1.161665569375201629e-01 -2.001593127942762294e+03 -1.355139929682479760e+03 -9.009120051336113875e+02 1.122658041642518612e+01
3.489160000000000039e+00 3.250160000000000160e+00 3.408605522526574561e+01 3.646582055760261198e+01 -1.260706804282141436e+00 2.503192907558798197e+01 1.259969711725959229e-01 -2.002754585743479538e+03 -1.355173651811361651e+03 -9.010306137931652302e+02 1.134369549800151589e+01
3.559639999999999915e+00 3.090819999999999901e+00 3.409647787654233753e+01 3.524441925656410035e+01 -1.205449089864061962e+00 2.421285492500929593e+01 1.350501976527805903e-01 -2.003871531229170387e+03 -1.355219645325631291e+03 -9.011374792615907836e+02 1.146046265856590551e+01
3.631549999999999834e+00 2.939150000000000151e+00 3.410661057579957856e+01 3.405949593996491132e+01 -1.152341621924186876e+00 2.341749504089627720e+01 1.433848072771326532e-01 -2.004948619144921395e+03 -1.355269235328880995e+03 -9.012342312736057011e+02 1.157684605762003116e+01
3.704909999999999926e+00 2.794779999999999820e+00 3.411645954003795822e+01 3.291039466328358287e+01 -1.101296735685964201e+00 2.264550223409753826e+01 1.510599798060967836e-01 -2.005997976070315644e+03 -1.355298106043761436e+03 -9.013415200261160862e+02 1.169275617012434410e+01
3.779760000000000009e+00 2.657379999999999853e+00 3.412603343546323487e+01 3.179610962627451443e+01 -1.052209948996045696e+00 2.189627412249087612e+01 1.581407509671843847e-01 -2.007012244364093476e+03 -1.355328377354979466e+03 -9.014415500127813630e+02 1.180813135939395941e+01
3.856110000000000149e+00 2.526609999999999800e+00 3.413533696629801284e+01 3.071611869423619012e+01 -1.005004619328869975e+00 2.116953855410173801e+01 1.646807330640672751e-01 -2.007981511969747544e+03 -1.355370670441279572e+03 -9.015264930372615026e+02 1.192285983434159213e+01
3.934009999999999785e+00 2.402159999999999851e+00 3.414437940843058072e+01 2.966920291834799173e+01 -9.595832663611503222e-01 2.046450483415924637e+01 1.707346618977203245e-01 -2.008926060841671642e+03 -1.355398194322539439e+03 -9.016180300774512943e+02 1.203688638984974979e+01
4.013480000000000381e+00 2.283729999999999816e+00 3.415316632834349519e+01 2.865476741570329366e+01 -9.158649274821190067e-01 1.978085796944715824e+01 1.763572373582136810e-01 -2.009842932769581921e+03 -1.355420481446160920e+03 -9.017092862473375590e+02 1.215010609441802103e+01
4.094560000000000421e+00 2.171040000000000081e+00 3.416170520101548647e+01 2.767190584168761802e+01 -8.737504765898123082e-01 1.911804909500648364e+01 1.816122726127046838e-01 -2.010714576574435114e+03 -1.355455251997372216e+03 -9.017827004582378549e+02 1.226231283203085276e+01
4.177270000000000039e+00 2.063810000000000144e+00 3.417000127983955338e+01 2.671998281987468360e+01 -8.331642152392269018e-01 1.847571252426508082e+01 1.865496406492119785e-01 -2.011566748033090789e+03 -1.355474825033828893e+03 -9.018655475396121801e+02 1.237337859131743123e+01
4.261660000000000004e+00 1.961780000000000079e+00 3.417806263602448524e+01 2.579794649173272347e+01 -7.940249821850636769e-01 1.785316886006816972e+01 1.912133758939607853e-01 -2.012389124846823961e+03 -1.355494591096223985e+03 -9.019434278649880525e+02 1.248334021865906607e+01
4.347749999999999559e+00 1.864710000000000090e+00 3.418589409516046373e+01 2.490390672078387624e+01 -7.571426332271892212e-01 1.724878058562713079e+01 1.947695733942795271e-01 -2.013172296184074867e+03 -1.355521512635918498e+03 -9.020063969368417247e+02 1.259207400577912850e+01
4.435579999999999856e+00 1.772370000000000001e+00 3.419350231361271852e+01 2.403682471249133101e+01 -7.226128995384291098e-01 1.666182192827310260e+01 1.970890563615614322e-01 -2.013942591709178942e+03 -1.355531482646909353e+03 -9.020839213777594523e+02 1.269927234581231978e+01
4.525190000000000268e+00 1.684520000000000017e+00 3.420089353826141121e+01 2.319759740592605368e+01 -6.892829963524000902e-01 1.609349450044087249e+01 1.992935164691896910e-01 -2.014671408129077236e+03 -1.355553376118390815e+03 -9.021419200149836115e+02 1.280483456752762628e+01
4.616600000000000037e+00 1.600959999999999939e+00 3.420807228614511786e+01 2.238560173220625060e+01 -6.570929452072450383e-01 1.554341364880401066e+01 2.014197785553530906e-01 -2.015383542490204945e+03 -1.355562780522166577e+03 -9.022083718531263230e+02 1.290878988555803986e+01
4.709869999999999557e+00 1.521470000000000100e+00 3.421504602006248064e+01 2.159999292279339045e+01 -6.259343996470011495e-01 1.501108007804713651e+01 2.035408112464376085e-01 -2.016064395202450214e+03 -1.355576102116400534e+03 -9.022649154061529089e+02 1.301068729360281395e+01
4.805010000000000225e+00 1.445859999999999923e+00 3.422181822769447734e+01 2.084024994409854159e+01 -5.957609566680188706e-01 1.449617251444004928e+01 2.056840455379651544e-01 -2.016721932174719086e+03 -1.355584677937080869e+03 -9.023206257555498269e+02 1.311054932828197828e+01
4.902079999999999771e+00 1.373950000000000005e+00 3.422839586492592900e+01 2.010546976093256433e+01 -5.664901984765874365e-01 1.399811116698381497e+01 2.078995002183512963e-01 -2.017354472424199685e+03 -1.355591625955039945e+03 -9.023728140636708304e+02 1.320813244225262295e+01
5.001109999999999722e+00 1.305560000000000054e+00 3.423478356875335749e+01 1.939518089558307068e+01 -5.380407720899998969e-01 1.351666324739763780e+01 2.102454028019517529e-01 -2.017962674847038215e+03 -1.355595843075049061e+03 -9.024218588064189817e+02 1.330319839063685095e+01
5.102140000000000342e+00 1.240520000000000067e+00 3.424098648720615756e+01 1.870870726919410032e+01 -5.103402510673425985e-01 1.305141042821854747e+01 2.127684286857671192e-01 -2.018545444033798276e+03 -1.355599468946357092e+03 -9.024657753110884642e+02 1.339554397782866779e+01
5.205210000000000115e+00 1.178670000000000107e+00 3.424700958720146104e+01 1.804540594346189053e+01 -4.833264001955801525e-01 1.260196036357157645e+01 2.155062599172551108e-01 -2.019108710294206276e+03 -1.355595972045719236e+03 -9.025112147407278371e+02 1.348502592679842138e+01
5.310360000000000191e+00 1.119860000000000078e+00 3.425285771473878782e+01 1.740254404921922315e+01 -4.583821387306212802e-01 1.216582235228312214e+01 2.170504818240822087e-01 -2.019643020013939804e+03 -1.355597948868733511e+03 -9.025445695021730899e+02 1.357111422564160463e+01
5.417629999999999946e+00 1.063930000000000042e+00 3.425853552273762404e+01 1.678064110188350710e+01 -4.347124610217945606e-01 1.174374817694957507e+01 2.181677279005051762e-01 -2.020162233780882161e+03 -1.355586014011606494e+03 -9.025858544525084426e+02 1.365383173848258558e+01
5.527079999999999771e+00 1.010760000000000103e+00 3.426404849890955973e+01 1.618016789030163594e+01 -4.114850398898635686e-01 1.133647394615287496e+01 2.196638116795713302e-01 -2.020653322843608976e+03 -1.355580616678184697e+03 -9.026142839406213625e+02 1.373283565404435791e+01
5.638729999999999798e+00 9.602009999999999712e-01 3.426939999456103436e+01 1.560085343144235814e+01 -3.885915815441603471e-01 1.094392063984383690e+01 2.216277049477417271e-01 -2.021124064767288246e+03 -1.355568540706420890e+03 -9.026417461675704317e+02 1.380753994789694694e+01
5.752640000000000420e+00 9.121350000000000291e-01 3.427459518723081544e+01 1.504190456798498055e+01 -3.659871864404107278e-01 1.056555005858401941e+01 2.240786420613831431e-01 -2.021575854071794083e+03 -1.355547717994561026e+03 -9.026698466088098485e+02 1.387778380844128456e+01
5.868850000000000122e+00 8.664399999999999880e-01 3.427963809794072603e+01 1.450291080469629001e+01 -3.435917901793136831e-01 1.020116747628336462e+01 2.270752810667191479e-01 -2.022001912261576763e+03 -1.355529524398897820e+03 -9.026880228428584587e+02 1.394317566668075514e+01
5.987409999999999677e+00 8.230009999999999826e-01 3.428453305889128444e+01 1.398213696147900897e+01 -3.221398783267348520e-01 9.849264487929280776e+00 2.298595609350639057e-01 -2.022405791826048926e+03 -1.355507134806794056e+03 -9.027009855046536586e+02 1.400327302186787826e+01
6.108360000000000234e+00 7.817089999999999872e-01 3.428928387374747189e+01 1.347842654321063804e+01 -3.020881646744130178e-01 9.508885639813088986e+00 2.319476059936470547e-01 -2.022789722264709098e+03 -1.355474286597609535e+03 -9.027142581421190926e+02 1.405760023009220028e+01
6.231760000000000410e+00 7.424589999999999801e-01 3.429389499256527074e+01 1.299337882838041125e+01 -2.819692964202554220e-01 9.181861143187321161e+00 2.347808127413822943e-01 -2.023151070690302731e+03 -1.355435454614673290e+03 -9.027220981082346043e+02 1.410566010480817845e+01
6.357649999999999579e+00 7.051500000000000545e-01 3.429836995760525298e+01 1.252664992703658697e+01 -2.616713307218644369e-01 8.868051366471382480e+00 2.384493262427599403e-01 -2.023487525965288114e+03 -1.355391788085415556e+03 -9.027224072233241259e+02 1.414676845032097496e+01
6.486089999999999911e+00 6.696889999999999787e-01 3.430271289248805999e+01 1.207780874268470761e+01 -2.410884189195460769e-01 8.567251926714934740e+00 2.430346815731391219e-01 -2.023798481960084473e+03 -1.355341032508915305e+03 -9.027154890972029762e+02 1.418027296847651897e+01
6.617110000000000269e+00 6.359869999999999690e-01 3.430692675040804573e+01 1.164491186605618545e+01 -2.212404045874455105e-01 8.277709100762784544e+00 2.474945404544526550e-01 -2.024083455365890131e+03 -1.355281073897764145e+03 -9.027014381345629772e+02 1.420568321476864959e+01
6.750790000000000290e+00 6.039579999999999949e-01 3.431101603253978993e+01 1.122790343654786760e+01 -2.018399963648539741e-01 7.999603270611676642e+00 2.520817279066552286e-01 -2.024340018988758175e+03 -1.355209263534601405e+03 -9.026792173471128535e+02 1.422184345963747809e+01
6.887159999999999727e+00 5.735200000000000298e-01 3.431498352274851982e+01 1.082805537624789771e+01 -1.818251487741770200e-01 7.734399609029896538e+00 2.578335261591229721e-01 -2.024566238036019513e+03 -1.355123973477596564e+03 -9.026478164463555913e+02 1.422817590449017011e+01
7.026290000000000369e+00 5.445950000000000513e-01 3.431883311022538408e+01 1.044518930458149519e+01 -1.609833661739344668e-01 7.482158138150066584e+00 2.649331079339902195e-01 -2.024757839193540804e+03 -1.355022342993371694e+03 -9.026049115378526722e+02 1.422341518104898661e+01
7.168230000000000324e+00 5.171090000000000408e-01 3.432256793464749478e+01 1.007781699945665999e+01 -1.401014119316031925e-01 7.241611659289774572e+00 2.725632157235251540e-01 -2.024909261911175463e+03 -1.354901407811985791e+03 -9.025474085239711712e+02 1.420636993770870937e+01
7.313039999999999985e+00 4.909910000000000108e-01 3.432619132429911701e+01 9.725984514892850541e+00 -1.190088699535261918e-01 7.013035313130117743e+00 2.808538713159096645e-01 -2.025013391847546018e+03 -1.354757280381990995e+03 -9.024713064394467210e+02 1.417575493376805085e+01
7.460770000000000124e+00 4.661739999999999773e-01 3.432970623820902745e+01 9.391468059300327909e+00 -9.638370496825321432e-02 6.798445441828129709e+00 2.910897248607129395e-01 -2.025062080573482035e+03 -1.354580906898934700e+03 -9.023740671577031662e+02 1.412974408603058585e+01
7.611489999999999867e+00 4.425959999999999894e-01 3.433311602518483596e+01 9.074266423637579848e+00 -7.212343556119027443e-02 6.598113239199864033e+00 3.033308386797551326e-01 -2.025045676709856707e+03 -1.354362572667815812e+03 -9.022529044859026044e+02 1.406675150569505561e+01
7.765249999999999986e+00 4.201949999999999852e-01 3.433642342780625256e+01 8.772779573598800340e+00 -4.739229507286815690e-02 6.410708010276021440e+00 3.163597991186924419e-01 -2.024938518658728071e+03 -1.354094088888054330e+03 -9.020913698901867974e+02 1.398422939535594267e+01
7.922119999999999607e+00 3.989130000000000176e-01 3.433963154904704140e+01 8.490479114012197570e+00 -2.003729605451491300e-02 6.240015778447473238e+00 3.322667309406742708e-01 -2.024722687641053199e+03 -1.353752516631215258e+03 -9.018864280282232357e+02 1.387963795735240247e+01
8.082169999999999632e+00 3.786950000000000038e-01 3.434274334929353500e+01 8.228866032060006219e+00 1.059913711805905191e-02 6.087896973008970036e+00 3.516388053007744041e-01 -2.024351958414663841e+03 -1.353315391653941333e+03 -9.016128476867826294e+02 1.374955830508007004e+01
8.245430000000000703e+00 3.594890000000000030e-01 3.434576095334251278e+01 7.987670073317790553e+00 4.361658698718395150e-02 5.954462567100946124e+00 3.734858501693267274e-01 -2.023770059166391093e+03 -1.352739291143493347e+03 -9.012478153293524201e+02 1.358990311515242055e+01
8.412000000000000810e+00 3.412439999999999918e-01 3.434868769562571345e+01 7.773026939802361923e+00 8.202953627435043138e-02 5.846354753152937178e+00 4.007037537608788558e-01 -2.022876125518737808e+03 -1.351956718108949644e+03 -9.007458855278512146e+02 1.339517024330049999e+01
8.581929999999999836e+00 3.239130000000000065e-01 3.435152589262231970e+01 7.589178193023860430e+00 1.267895193234274132e-01 5.768411729239041996e+00 4.340983529627391868e-01 -2.021508084552833679e+03 -1.350859025198838935e+03 -9.000343713820066114e+02 1.315875930983640707e+01
8.755300000000000082e+00 3.074529999999999763e-01 3.435427828808639106e+01 7.443628673487000746e+00 1.796674901804952429e-01 5.728921059958240747e+00 4.752320708779539382e-01 -2.019368446751158672e+03 -1.349246172729885984e+03 -8.989807309538339268e+02 1.287134842537031254e+01
8.932169999999999277e+00 2.918180000000000218e-01 3.435694721480358282e+01 7.352314339554139266e+00 2.456168382382409310e-01 5.744881022031176343e+00 5.287681275097528832e-01 -2.015875487149245373e+03 -1.346730290893092388e+03 -8.973245699929944976e+02 1.251999248903041106e+01
9.112610000000000099e+00 2.769690000000000207e-01 3.435953508089632891e+01 7.338824522340174461e+00 3.297240684116965470e-01 5.841430413122431275e+00 5.993510296068131904e-01 -2.009762193364575978e+03 -1.342462097523876537e+03 -8.945029346755482038e+02 1.208565386197465230e+01
9.296699999999999520e+00 2.628659999999999886e-01 3.436204434122293350e+01 7.455277151090678345e+00 4.444324692875838423e-01 6.073139149042478202e+00 6.986896807403184528e-01 -1.997816120659792887e+03 -1.334296463936193959e+03 -8.890858531214669256e+02 1.153828943068497814e+01
9.484510000000000218e+00 2.494719999999999993e-01 3.436447722604943777e+01 7.819850227739383541e+00 6.137318258352157940e-01 6.562559357807729477e+00 8.494020703550476670e-01 -1.969634044251431760e+03 -1.315289882383866825e+03 -8.764474915634170884e+02 1.082459845127096898e+01
9.676099999999999923e+00 2.367529999999999912e-01 3.436683575857220774e+01 8.801416707462230704e+00 9.009527304983501184e-01 7.688050645293706076e+00 1.111568564859509056e+00 -1.873434571846093377e+03 -1.250905096128351033e+03 -8.335680931071997293e+02 9.831182686573532337e+00
9.871579999999999799e+00 2.246740000000000126e-01 3.436912251148562802e+01 1.202806290042555659e+01 1.316823610811316270e+00 1.110846081434766219e+01 1.482034528281425345e+00 -9.979822882591275857e+02 -6.669312415485997008e+02 -4.443315841161416984e+02 8.194541662928182646e+00
