1.012320000000000025e-01 5.343840000000000146e+03 1.554193023797834883e+01 4.348759641923788877e+02 -8.860862583584159324e+01 1.184133586654250365e+02 -9.620918892990502513e+01 -3.740047699249502671e+02 -8.034500705653066461e+02 -5.490041696825543340e+02 4.272838260369561381e-01
1.032769999999999938e-01 5.177880000000000109e+03 1.575160326965414725e+01 4.411108915564280437e+02 -8.901567609735442943e+01 1.228722860896620688e+02 -9.594612339150855007e+01 -3.844073503548739836e+02 -8.135035353490169427e+02 -5.545365748127211418e+02 4.390741159138164540e-01
1.053629999999999983e-01 5.029180000000000291e+03 1.596226778801360169e+01 4.471750557357800062e+02 -8.940065243637918968e+01 1.272366901990621386e+02 -9.564263145400352073e+01 -3.949858202542499157e+02 -8.235406303978297728e+02 -5.600262692242919229e+02 4.511291489174994451e-01
1.074920000000000042e-01 4.897510000000000218e+03 1.617412876213366246e+01 4.531488586171549855e+02 -8.975519758651311975e+01 1.315860075153806577e+02 -9.528770439410872939e+01 -4.057433322558096052e+02 -8.335661384705146020e+02 -5.654715440763718561e+02 4.634677683525046388e-01
1.096629999999999966e-01 4.781729999999999563e+03 1.638707851054702047e+01 4.590804101565652218e+02 -9.009052533712718969e+01 1.359705689554681669e+02 -9.489194600204729113e+01 -4.166671990544737127e+02 -8.435687803566648881e+02 -5.708633141455209170e+02 4.760939513441048709e-01
1.118790000000000062e-01 4.679579999999999927e+03 1.660139494680734984e+01 4.650159038409352092e+02 -9.042506720067082426e+01 1.404378568247398960e+02 -9.447316684675895715e+01 -4.277662734999179293e+02 -8.535532425998510462e+02 -5.762033169161753676e+02 4.889982386957982263e-01
1.141390000000000043e-01 4.588729999999999563e+03 1.681695149114151633e+01 4.710420404157247276e+02 -9.073962802499366376e+01 1.450800687356976653e+02 -9.401438686369749576e+01 -4.390294341531230202e+02 -8.635036670596437034e+02 -5.814842979999978070e+02 5.022124307112517672e-01
1.164450000000000068e-01 4.505899999999999636e+03 1.703389579694925970e+01 4.771539852570772950e+02 -9.107678304102780942e+01 1.498965290326919160e+02 -9.356048842615476246e+01 -4.504611039388277050e+02 -8.734153048963408992e+02 -5.867072064007419385e+02 5.157037627230214305e-01
1.187969999999999998e-01 4.427689999999999600e+03 1.725216716041477127e+01 4.834409841574330926e+02 -9.140104086718721987e+01 1.549837131606875857e+02 -9.308054396462442526e+01 -4.620573417079076535e+02 -8.832724346600399485e+02 -5.918696439428813392e+02 5.295126887682154448e-01
1.211969999999999992e-01 4.350680000000000291e+03 1.747187250321285035e+01 4.898932407962756201e+02 -9.173435928564602193e+01 1.603389038113514289e+02 -9.260166752551171498e+01 -4.738244292655492700e+02 -8.930660413572439893e+02 -5.969747427183413038e+02 5.436213624554964152e-01
1.236450000000000049e-01 4.271460000000000036e+03 1.769290928386760697e+01 4.965216637956547743e+02 -9.206645376939947312e+01 1.659812450771570695e+02 -9.212010593895324462e+01 -4.857588306359516537e+02 -9.027779249563274107e+02 -6.020223705066307502e+02 5.580468788011737624e-01
1.261430000000000051e-01 4.187039999999999964e+03 1.791532852621092431e+01 5.033258949089965313e+02 -9.238190093775354228e+01 1.719182011027849910e+02 -9.162717637184356079e+01 -4.978670848835569700e+02 -9.123974900691281391e+02 -6.070175534456741389e+02 5.727927216282313605e-01
1.286909999999999998e-01 4.095000000000000000e+03 1.813896675815420778e+01 5.102217367061762729e+02 -9.269961641137795993e+01 1.780738250504357154e+02 -9.114928057210187262e+01 -5.101457328046253679e+02 -9.219066772464371979e+02 -6.119619432132697057e+02 5.878561961486810095e-01
1.312909999999999910e-01 3.993550000000000182e+03 1.836379844498527092e+01 5.172087512083095362e+02 -9.297176384295532614e+01 1.844541025106002223e+02 -9.064519577285551577e+01 -5.225992396274606335e+02 -9.312967907101976834e+02 -6.168614712693811271e+02 6.032583580474742968e-01
1.339430000000000065e-01 3.881909999999999854e+03 1.858958161937700382e+01 5.241423439582911215e+02 -9.322780192732128057e+01 1.909204174760692183e+02 -9.015101784204398427e+01 -5.352224720453669988e+02 -9.405534542022030564e+02 -6.217183930014255111e+02 6.189806690241521636e-01
1.366489999999999927e-01 3.760079999999999927e+03 1.881619454459322327e+01 5.309811880713950814e+02 -9.342219870377660129e+01 1.974349230598884901e+02 -8.962596804275420936e+01 -5.480187429728215420e+02 -9.496721183956593677e+02 -6.265384291089700355e+02 6.350576658947100217e-01
1.394090000000000051e-01 3.629150000000000091e+03 1.904329613826832102e+01 5.375973596713444067e+02 -9.355872487878393429e+01 2.038712939296432012e+02 -8.907772571109174464e+01 -5.609790436994891252e+02 -9.586451481203130243e+02 -6.313228803453918090e+02 6.514591784295995502e-01
1.422259999999999913e-01 3.490849999999999909e+03 1.927074217532408440e+01 5.438841130293934611e+02 -9.363061808721785440e+01 2.101219945670774507e+02 -8.850074150326415179e+01 -5.741081911361053471e+02 -9.674776199545327700e+02 -6.360773323956523200e+02 6.682348578215691060e-01
1.450990000000000058e-01 3.347710000000000036e+03 1.949802156525919017e+01 5.497760154508450796e+02 -9.360503630359968952e+01 2.161182443420731545e+02 -8.786242857227101410e+01 -5.873901472384616227e+02 -9.761656895420285309e+02 -6.407992136419038616e+02 6.853413595219400856e-01
1.480299999999999949e-01 3.202679999999999836e+03 1.972483139262792662e+01 5.551227429244501081e+02 -9.352114137915633307e+01 2.217044362611884480e+02 -8.719946069994416860e+01 -6.008208615092071341e+02 -9.847183296542635844e+02 -6.454894287639874619e+02 7.028270616805195603e-01
1.510199999999999876e-01 3.059199999999999818e+03 1.995075988864692818e+01 5.599418287413891449e+02 -9.332458935841317782e+01 2.268905461040102693e+02 -8.645331811601516847e+01 -6.143909746977781197e+02 -9.931439199974105350e+02 -6.501456518685446326e+02 7.206578058911284890e-01
1.540710000000000135e-01 2.920880000000000109e+03 2.017545749794962973e+01 5.641428726460825374e+02 -9.305766464568452534e+01 2.315775331748622534e+02 -8.566048464212484248e+01 -6.280947943186515658e+02 -1.001455321023612782e+03 -6.547655201114458805e+02 7.388820556026687303e-01
1.571839999999999904e-01 2.791380000000000109e+03 2.039849491875041920e+01 5.677691411327934929e+02 -9.269893268706337608e+01 2.357995998623504477e+02 -8.479289377444055731e+01 -6.419232244024367446e+02 -1.009662558595434348e+03 -6.593439201917115042e+02 7.574675873600903442e-01
1.603590000000000015e-01 2.673690000000000055e+03 2.061938554720622108e+01 5.708570163688306138e+02 -9.226261725973733974e+01 2.395835420460980458e+02 -8.385801897487014855e+01 -6.558621555350512153e+02 -1.017772963061555970e+03 -6.638734437141384888e+02 7.764462013692345899e-01
1.635979999999999934e-01 2.569949999999999818e+03 2.083781561777040992e+01 5.734588215915032379e+02 -9.177850178171124185e+01 2.429739550535241221e+02 -8.287894913106840988e+01 -6.699083627231599394e+02 -1.025796654781024927e+03 -6.683494446232416522e+02 7.957983635674118483e-01
1.669029999999999958e-01 2.480610000000000127e+03 2.105350188386300303e+01 5.757378697821059177e+02 -9.122496332262258534e+01 2.461279465079467172e+02 -8.182868961298747479e+01 -6.840599617434298807e+02 -1.033740377354055227e+03 -6.727675846339933514e+02 8.155582456268858360e-01
1.702750000000000097e-01 2.404789999999999964e+03 2.126614095846602126e+01 5.777319058764817328e+02 -9.067377710245234823e+01 2.490796662095768568e+02 -8.077570966719073908e+01 -6.983107761554459785e+02 -1.041604978269165940e+03 -6.771229827798898668e+02 8.357118267222267693e-01
1.737150000000000083e-01 2.340230000000000018e+03 2.147548751941412704e+01 5.796461525829953416e+02 -9.008554834753381613e+01 2.520334453639667629e+02 -7.967961417835233817e+01 -7.126557936214918527e+02 -1.049387252619204219e+03 -6.814122452447249998e+02 8.562729166310485418e-01
1.772239999999999926e-01 2.284019999999999982e+03 2.168135843526965800e+01 5.815454318725873009e+02 -8.950523258580584240e+01 2.550553192872390298e+02 -7.858673818388172094e+01 -7.270900158627340488e+02 -1.057080615816603768e+03 -6.856337254833955512e+02 8.772437065347006291e-01
1.808039999999999925e-01 2.233019999999999982e+03 2.188369430856221243e+01 5.835302240910352793e+02 -8.893000908374122560e+01 2.582505089394728088e+02 -7.749793092429315777e+01 -7.416130996263428869e+02 -1.064677430206316558e+03 -6.897888780133667979e+02 8.986248908260617840e-01
1.844570000000000098e-01 2.183980000000000018e+03 2.208249719824273427e+01 5.856650167798103439e+02 -8.835420876315110661e+01 2.616894408589440673e+02 -7.641320552085122131e+01 -7.562254785469332319e+02 -1.072167394293689767e+03 -6.938809737806550402e+02 9.204454717959366095e-01
1.881829999999999892e-01 2.133619999999999891e+03 2.227773378738117316e+01 5.879029785749039547e+02 -8.780905721120628016e+01 2.653317165747332069e+02 -7.537105307073109373e+01 -7.709192023763469024e+02 -1.079535330023269580e+03 -6.979126540141534178e+02 9.426704626817637989e-01
1.919849999999999890e-01 2.078880000000000109e+03 2.246960799860462643e+01 5.902600487863139733e+02 -8.724768773578375658e+01 2.692001732747305027e+02 -7.433194644294832187e+01 -7.856991519796781631e+02 -1.086772006548977515e+03 -7.018910580213790809e+02 9.653541398315306221e-01
1.958630000000000093e-01 2.017349999999999909e+03 2.265824297338756210e+01 5.925785811421222888e+02 -8.670206758908598488e+01 2.731413948112274284e+02 -7.333502314454412385e+01 -8.005564895352255235e+02 -1.093864693712366034e+03 -7.058203076573150838e+02 9.884517050680696748e-01
1.998199999999999976e-01 1.948210000000000036e+03 2.284398444191837996e+01 5.947768016652028109e+02 -8.612455201577147079e+01 2.770771133965768058e+02 -7.233794783526867889e+01 -8.154922363680825583e+02 -1.100809685210582074e+03 -7.097069220269391963e+02 1.012011488524259706e+00
2.038560000000000094e-01 1.872349999999999909e+03 2.302710683081420484e+01 5.966919020534495530e+02 -8.551019321051454369e+01 2.808431807455152125e+02 -7.133901880665574424e+01 -8.304947058975837990e+02 -1.107601908520322922e+03 -7.135529171815020391e+02 1.036014395878799288e+00
2.079739999999999922e-01 1.792190000000000055e+03 2.320808554178315219e+01 5.981737638860795414e+02 -8.485224192419599376e+01 2.842860875118054764e+02 -7.033138515148661440e+01 -8.455593699863023858e+02 -1.114246743319093866e+03 -7.173607969608621033e+02 1.060471205068019396e+00
2.121760000000000035e-01 1.710930000000000064e+03 2.338738245659704518e+01 5.991595347751091367e+02 -8.411041824363060471e+01 2.873363873414016894e+02 -6.927219544128205087e+01 -8.606773977173993444e+02 -1.120751174076294092e+03 -7.211297092962072384e+02 1.085413783302676904e+00
2.164619999999999878e-01 1.631789999999999964e+03 2.356539967937131408e+01 5.995191538375772780e+02 -8.332891718516054880e+01 2.898537454164065252e+02 -6.820065465826608886e+01 -8.758354151670231431e+02 -1.127120787092988166e+03 -7.248552355136899905e+02 1.110793449336647587e+00
2.208350000000000035e-01 1.557650000000000091e+03 2.374265791711321327e+01 5.993265653129906241e+02 -8.245952242205368066e+01 2.919030524899208103e+02 -6.706214583371865956e+01 -8.910311646328752886e+02 -1.133366723502873128e+03 -7.285340976099903401e+02 1.136666849287839343e+00
2.252959999999999963e-01 1.490759999999999991e+03 2.391955031316651059e+01 5.986021149923648181e+02 -8.153795965643355714e+01 2.934942763238184398e+02 -6.588569317890721777e+01 -9.062561915148763774e+02 -1.139496460142411479e+03 -7.321605767644001617e+02 1.163018023000140566e+00
2.298469999999999958e-01 1.432390000000000100e+03 2.409644502494481344e+01 5.974663429498444884e+02 -8.057072459434756695e+01 2.947399112116492006e+02 -6.467178805718282320e+01 -9.215021632012962982e+02 -1.145518317710360634e+03 -7.357295892365010559e+02 1.189846087343983783e+00
2.344900000000000040e-01 1.382490000000000009e+03 2.427361156520269958e+01 5.960839048273119261e+02 -7.955910988458303734e+01 2.957993388129493724e+02 -6.341783388277515598e+01 -9.367570984310775657e+02 -1.151439147139107263e+03 -7.392367361301835444e+02 1.217182495589602675e+00
2.392269999999999952e-01 1.339750000000000000e+03 2.445119949394235448e+01 5.945386396742003399e+02 -7.856166784804450742e+01 2.967540339108625176e+02 -6.218090056642149932e+01 -9.520110450474282970e+02 -1.157261864847222796e+03 -7.426797112290263385e+02 1.245004851742930629e+00
2.440599999999999992e-01 1.301880000000000109e+03 2.462922790555112229e+01 5.930182394958526402e+02 -7.754860350298595506e+01 2.977924218186015537e+02 -6.093264559406289038e+01 -9.672587706704966877e+02 -1.162984632625951690e+03 -7.460590706915604642e+02 1.273336277971400143e+00
2.489899999999999891e-01 1.266079999999999927e+03 2.480753871625904239e+01 5.915349519787247345e+02 -7.656848139975679146e+01 2.989294352685613489e+02 -5.972576899405896000e+01 -9.825007969106268320e+02 -1.168598916176313423e+03 -7.493780345984764608e+02 1.302188568678067204e+00
2.540200000000000236e-01 1.229500000000000000e+03 2.498590995222307143e+01 5.901181355529295161e+02 -7.560645290268298879e+01 3.001990181597753349e+02 -5.855084298707790680e+01 -9.977485824631991136e+02 -1.174095299589651859e+03 -7.526435058692235316e+02 1.331539793085226409e+00
2.591519999999999935e-01 1.189940000000000055e+03 2.516395704605427852e+01 5.887170416822963261e+02 -7.465022452658701013e+01 3.015534081261463371e+02 -5.740120447173280382e+01 -1.013004872000957675e+03 -1.179464884693852355e+03 -7.558617576240599192e+02 1.361423809318857980e+00
2.643869999999999831e-01 1.146559999999999945e+03 2.534115691012350524e+01 5.871659968635876794e+02 -7.372266614455263323e+01 3.028273166195577346e+02 -5.630389596840839772e+01 -1.028262246013626509e+03 -1.184701629427581338e+03 -7.590369774283208244e+02 1.391845037248511829e+00
2.697280000000000233e-01 1.100089999999999918e+03 2.551698241925126709e+01 5.854022755703737175e+02 -7.275997422270702941e+01 3.039569096073434480e+02 -5.519709298396742980e+01 -1.043514362981776003e+03 -1.189805622301371159e+03 -7.621721681005653863e+02 1.422783342413424634e+00
2.751770000000000049e-01 1.052240000000000009e+03 2.569083483404183710e+01 5.832497178756012772e+02 -7.178601146932729193e+01 3.047619673942150484e+02 -5.410425386529058045e+01 -1.058751379405852958e+03 -1.194778916408704163e+03 -7.652671783653767079e+02 1.454269339065483502e+00
2.807359999999999856e-01 1.005049999999999955e+03 2.586212264029345675e+01 5.806762759293508225e+02 -7.076546458976145004e+01 3.052040522688232045e+02 -5.298716493812713679e+01 -1.073965330599865638e+03 -1.199625423571022793e+03 -7.683197593060984900e+02 1.486312639596234275e+00
2.864070000000000227e-01 9.604900000000000091e+02 2.603030303775792120e+01 5.776913670840251598e+02 -6.968910897630289014e+01 3.052838177990996087e+02 -5.183184498051968347e+01 -1.089148796736983286e+03 -1.204350477171479952e+03 -7.713261576932012531e+02 1.518896491784733849e+00
2.921929999999999805e-01 9.201929999999999836e+02 2.619494678617705219e+01 5.743054630540976859e+02 -6.859708895524347838e+01 3.050034687828005531e+02 -5.067295975915923378e+01 -1.104298924832282637e+03 -1.208960103512191836e+03 -7.742829603875095472e+02 1.552039595586609311e+00
2.980960000000000276e-01 8.848410000000000082e+02 2.635571541112196314e+01 5.706893572691335521e+02 -6.745842427000201269e+01 3.045283037555540204e+02 -4.947569803923822462e+01 -1.119411278500376739e+03 -1.213458411262561413e+03 -7.771872985554996376e+02 1.585757900703714141e+00
3.041179999999999994e-01 8.537759999999999536e+02 2.651242695140542338e+01 5.669099673885845050e+02 -6.632457350866246770e+01 3.039231693647146813e+02 -4.829018031518858578e+01 -1.134482803366735425e+03 -1.217847436106974101e+03 -7.800385057117551924e+02 1.620051161971523657e+00
3.102610000000000090e-01 8.254059999999999491e+02 2.666508246993207010e+01 5.630880585657935171e+02 -6.519838175500991895e+01 3.033077397996377158e+02 -4.711979547222404818e+01 -1.149508761836790654e+03 -1.222127679480283405e+03 -7.828381754842768032e+02 1.654900179254585879e+00
3.165290000000000048e-01 7.979959999999999809e+02 2.681392763199524154e+01 5.592918460412969353e+02 -6.407990920629195841e+01 3.027499054022874247e+02 -4.596659218506243860e+01 -1.164490138050440009e+03 -1.226298706144776361e+03 -7.855908437049511122e+02 1.690345670235160247e+00
3.229230000000000156e-01 7.701380000000000337e+02 2.695931725385988997e+01 5.554438792734996468e+02 -6.301143477057453168e+01 3.021724854216818130e+02 -4.487614806281568036e+01 -1.179424824721946607e+03 -1.230355222507842882e+03 -7.883010611448671625e+02 1.726384778912012141e+00
3.294469999999999898e-01 7.409869999999999663e+02 2.710182810922325913e+01 5.515322502516074792e+02 -6.194173972537166151e+01 3.015665473182560277e+02 -4.380081234499092346e+01 -1.194317446532631720e+03 -1.234293444571552527e+03 -7.909742281265079100e+02 1.763024990176167206e+00
3.361020000000000119e-01 7.105910000000000082e+02 2.724205015222888804e+01 5.474358434855816995e+02 -6.087870459584009808e+01 3.008086865953385995e+02 -4.274994239166915122e+01 -1.209156226324593263e+03 -1.238111471083049992e+03 -7.936118564314242576e+02 1.800248609704490743e+00
3.428919999999999746e-01 6.799679999999999609e+02 2.738064068707823751e+01 5.430819730412188164e+02 -5.981073302221746246e+01 2.998208557545796680e+02 -4.171039471557785561e+01 -1.223926790482260458e+03 -1.241813866505670831e+03 -7.962134465994240600e+02 1.838089413836256014e+00
3.498189999999999911e-01 6.505109999999999673e+02 2.751813808137614714e+01 5.384776187293791736e+02 -5.870622199658201623e+01 2.986038567157769421e+02 -4.064794284415728498e+01 -1.238610503706751388e+03 -1.245405946442678214e+03 -7.987758975920058901e+02 1.876549010100418524e+00
3.568850000000000078e-01 6.231960000000000264e+02 2.765495161366480659e+01 5.335908847816554044e+02 -5.759888048000872374e+01 2.971223943672754331e+02 -3.959391224171906032e+01 -1.253192344224350563e+03 -1.248893631364204339e+03 -8.012958671032520215e+02 1.915628756597968829e+00
3.640950000000000020e-01 5.983339999999999463e+02 2.779138700637381731e+01 5.285290089019269999e+02 -5.646789011612277420e+01 2.954813922796329848e+02 -3.852513839188670630e+01 -1.267659158554354690e+03 -1.252286695441644270e+03 -8.037711847679588573e+02 1.955329285274184148e+00
3.714500000000000024e-01 5.756839999999999691e+02 2.792748990142993648e+01 5.233800131348782543e+02 -5.533032332586682145e+01 2.937624330303337388e+02 -3.745658745991614325e+01 -1.281981056813524447e+03 -1.255596025546743704e+03 -8.061986516021831903e+02 1.995657429143617101e+00
3.789540000000000131e-01 5.544769999999999754e+02 2.806316095864406179e+01 5.181594052476581282e+02 -5.422993687256516182e+01 2.919791112890748650e+02 -3.643194704153628294e+01 -1.296131985524446918e+03 -1.258834028267862323e+03 -8.085772044947865425e+02 2.036630285138117724e+00
3.866089999999999804e-01 5.337079999999999700e+02 2.819805967893540100e+01 5.129305997537778694e+02 -5.313544441707767874e+01 2.901965398399354399e+02 -3.542221370742995390e+01 -1.310085494270336994e+03 -1.262009938762802449e+03 -8.109061604564817571e+02 2.078247956524917672e+00
3.944190000000000196e-01 5.127519999999999527e+02 2.833169965673901558e+01 5.076321555065192683e+02 -5.206365764619992120e+01 2.883540950686208362e+02 -3.444615115301908759e+01 -1.323820167956743717e+03 -1.265132416846590786e+03 -8.131850846465713403e+02 2.120521084000172696e+00
4.023869999999999947e-01 4.916309999999999718e+02 2.846347588732466960e+01 5.022147792152670149e+02 -5.101100549964255038e+01 2.863983132018553306e+02 -3.350007442026166160e+01 -1.337313057837576935e+03 -1.268209424617503146e+03 -8.154117090133644297e+02 2.163450842452498524e+00
4.105159999999999920e-01 4.707880000000000109e+02 2.859278969161877271e+01 4.966758903162863703e+02 -4.994406319159036656e+01 2.843230734778177293e+02 -3.254993165359433505e+01 -1.350554305027627606e+03 -1.271245332836929265e+03 -8.175834357888214754e+02 2.207032176527828238e+00
4.188089999999999868e-01 4.508090000000000259e+02 2.871915959210396707e+01 4.909583544539951276e+02 -4.888354691313016076e+01 2.820698839184300368e+02 -3.161567227900768984e+01 -1.363552636686298911e+03 -1.274239632824424461e+03 -8.196986437469181510e+02 2.251283204187578768e+00
4.272690000000000099e-01 4.321390000000000100e+02 2.884229633745690435e+01 4.851113383421642880e+02 -4.781545147282820807e+01 2.796843339375085975e+02 -3.068134517226097557e+01 -1.376331559608981024e+03 -1.277188092500455696e+03 -8.217574239407385903e+02 2.296207791461631675e+00
4.359009999999999829e-01 4.148000000000000114e+02 2.896215650038218214e+01 4.791991053407380718e+02 -4.673957776600114755e+01 2.772269753156454044e+02 -2.974494808728421091e+01 -1.388929905309590595e+03 -1.280083291735847070e+03 -8.237628172435915985e+02 2.341820023428761832e+00
4.447059999999999902e-01 3.984080000000000155e+02 2.907885840563967150e+01 4.732132413465637910e+02 -4.569769187311959513e+01 2.746872697285787126e+02 -2.884814314537656799e+01 -1.401395153879274403e+03 -1.282910424268153292e+03 -8.257201125664279289e+02 2.388112439521971719e+00
4.536899999999999822e-01 3.825470000000000255e+02 2.919277789829280323e+01 4.672053656329686078e+02 -4.466622026948027013e+01 2.721176767423530691e+02 -2.796825476008047318e+01 -1.413792529527822126e+03 -1.285650403872362403e+03 -8.276382628313335772e+02 2.435103558217233122e+00
4.628550000000000164e-01 3.669370000000000118e+02 2.930437130542948765e+01 4.611731738845329005e+02 -4.364179144380658926e+01 2.695131558177839679e+02 -2.710223177639375081e+01 -1.426179403755482326e+03 -1.288280841213020494e+03 -8.295258221294944860e+02 2.482790488594271316e+00
4.722060000000000146e-01 3.515419999999999732e+02 2.941417803516628027e+01 4.550436585222661847e+02 -4.265050319457149897e+01 2.667995069561458763e+02 -2.627620932140968080e+01 -1.438599487808458207e+03 -1.290784346605924156e+03 -8.313901314717772948e+02 2.531185608384010521e+00
4.817449999999999788e-01 3.366560000000000059e+02 2.952264838709714212e+01 4.488509649267406871e+02 -4.165312356488561818e+01 2.640087741035993076e+02 -2.545050221187129225e+01 -1.451062221464215099e+03 -1.293152584581559267e+03 -8.332344388943334934e+02 2.580280736604068093e+00
4.914769999999999972e-01 3.224979999999999905e+02 2.963012525051493995e+01 4.426008478469452143e+02 -4.065172168458997959e+01 2.611438492838544221e+02 -2.462594502656700612e+01 -1.463546393459767160e+03 -1.295390760382071676e+03 -8.350587366258152997e+02 2.630089587180354460e+00
5.014049999999999896e-01 3.091179999999999950e+02 2.973672431394506432e+01 4.362728660122372162e+02 -3.967742069378859782e+01 2.581825388253821529e+02 -2.383295931333357132e+01 -1.476000278602245771e+03 -1.297514556229283698e+03 -8.368596732129080920e+02 2.680616596233753146e+00
5.115340000000000442e-01 2.964189999999999827e+02 2.984235263873517141e+01 4.299316377345419937e+02 -3.870641247428343945e+01 2.551887877726635736e+02 -2.304751462246984062e+01 -1.488353254860712923e+03 -1.299548516202299879e+03 -8.386318181664636313e+02 2.731872452136844487e+00
5.218679999999999986e-01 2.841630000000000109e+02 2.994670376106135734e+01 4.235880306606764520e+02 -3.774546172735271199e+01 2.521709717248836000e+02 -2.227603325886649444e+01 -1.500528231066271701e+03 -1.301519285540245846e+03 -8.403683556998728363e+02 2.783862286880487424e+00
5.324109999999999676e-01 2.722509999999999764e+02 3.004936079445871044e+01 4.171961793832770127e+02 -3.681987651165621855e+01 2.490826376344921016e+02 -2.154414807093952078e+01 -1.512465653908961485e+03 -1.303447975077505589e+03 -8.420633196655469419e+02 2.836590815876956828e+00
5.431660000000000377e-01 2.606999999999999886e+02 3.014991538336190757e+01 4.107933313646401530e+02 -3.589642750227933732e+01 2.459594177960386787e+02 -2.081848037160694886e+01 -1.524133818514214227e+03 -1.305346433649495111e+03 -8.437127172908578814e+02 2.890057375315942867e+00
5.541390000000000482e-01 2.496030000000000086e+02 3.024810619987524873e+01 4.043762308512139612e+02 -3.497421665530156076e+01 2.427966107715932651e+02 -2.009751928456409686e+01 -1.535538069013409768e+03 -1.307216636987189077e+03 -8.453162048519009204e+02 2.944275805465094376e+00
5.653329999999999744e-01 2.390430000000000064e+02 3.034381558073710394e+01 3.979147013924804241e+02 -3.407999954538102827e+01 2.395625865754014967e+02 -1.940752530974076251e+01 -1.546711635449421919e+03 -1.309050142699436265e+03 -8.468766609483565162e+02 2.999244602591070841e+00
5.767529999999999601e-01 2.289600000000000080e+02 3.043713000953689019e+01 3.914586729395626890e+02 -3.319352840275001171e+01 2.363057091066604016e+02 -1.872773421500940216e+01 -1.557702373081914402e+03 -1.310834152615033872e+03 -8.483993962378856395e+02 3.054971716603596565e+00
5.884040000000000381e-01 2.192820000000000107e+02 3.052830591084877199e+01 3.850170679240260938e+02 -3.231582528961040168e+01 2.330341921095682665e+02 -1.805916193167653105e+01 -1.568548193467020837e+03 -1.312557794703240006e+03 -8.498892994283446569e+02 3.111464579438476097e+00
6.002910000000000190e-01 2.099329999999999927e+02 3.061769860613716787e+01 3.785643889971145768e+02 -3.146411467909886994e+01 2.297215721401389317e+02 -1.741889822568873569e+01 -1.579266873359817282e+03 -1.314215607271092267e+03 -8.513493009232624900e+02 3.168730106484157982e+00
6.124180000000000179e-01 2.009319999999999879e+02 3.070563657501975996e+01 3.721166829622247860e+02 -3.062543592715394070e+01 2.263824922773943342e+02 -1.679362583485431415e+01 -1.589853523063544799e+03 -1.315808877690225472e+03 -8.527797337963063455e+02 3.226769917856351810e+00
6.247890000000000388e-01 1.923009999999999877e+02 3.079232544643480907e+01 3.656853444317958406e+02 -2.979293659372682157e+01 2.230273356856107227e+02 -1.617624773520277159e+01 -1.600288726855894538e+03 -1.317344396025617471e+03 -8.541791367568259830e+02 3.285585254421025780e+00
6.374109999999999498e-01 1.840529999999999973e+02 3.087782717452219572e+01 3.592631001158367781e+02 -2.897668997754964693e+01 2.196481160086798070e+02 -1.557650406740233784e+01 -1.610556266312665230e+03 -1.318829914771856920e+03 -8.555463112414370244e+02 3.345185438008655421e+00
6.502879999999999772e-01 1.761490000000000009e+02 3.096202949588856157e+01 3.528506924241803517e+02 -2.818245262622417968e+01 2.162445103264991815e+02 -1.499987699686159637e+01 -1.620648331073547979e+03 -1.320269410230399444e+03 -8.568808502867211701e+02 3.405571823443205304e+00
6.634240000000000137e-01 1.685579999999999927e+02 3.104471524103918512e+01 3.464711915834228648e+02 -2.739789443644691147e+01 2.128385906559233263e+02 -1.443385400236532234e+01 -1.630570353006192136e+03 -1.321662120471182106e+03 -8.581837692294215003e+02 3.466747500949230343e+00
6.768260000000000387e-01 1.612599999999999909e+02 3.112566476305523011e+01 3.401255491020594377e+02 -2.662293502913441401e+01 2.094308477730260734e+02 -1.387819044506126431e+01 -1.640335771655557437e+03 -1.323005207660405858e+03 -8.594570510898458906e+02 3.528725769855171723e+00
6.904989999999999739e-01 1.542649999999999864e+02 3.120472944286154515e+01 3.337892243463778073e+02 -2.587487634827128602e+01 2.059959112519973417e+02 -1.334989320053865924e+01 -1.649953825782872627e+03 -1.324296423391718463e+03 -8.607022863315356744e+02 3.591510038578475505e+00
7.044479999999999631e-01 1.475639999999999930e+02 3.128190589030440094e+01 3.274914636252481159e+02 -2.513734705067360053e+01 2.025622577899724490e+02 -1.283229412519258261e+01 -1.659428938120106977e+03 -1.325535222099491648e+03 -8.619206976231910176e+02 3.655103231672294228e+00
7.186789999999999567e-01 1.411469999999999914e+02 3.135732186364944951e+01 3.212369792538116826e+02 -2.441030655896963353e+01 1.991340729359090744e+02 -1.232515105659676102e+01 -1.668759558596301986e+03 -1.326723347443287821e+03 -8.631129255976652530e+02 3.719512295944031877e+00
7.331969999999999876e-01 1.349879999999999995e+02 3.143116215653846979e+01 3.150215052244212757e+02 -2.369859408291614855e+01 1.957066362048639689e+02 -1.183324396229599174e+01 -1.677943868755578706e+03 -1.327862153352115456e+03 -8.642795293357308992e+02 3.784739099173660026e+00
7.480090000000000350e-01 1.290869999999999891e+02 3.150361586318795659e+01 3.088374592851607190e+02 -2.300878846884869944e+01 1.922719940240411347e+02 -1.136299190265762604e+01 -1.686983540648191365e+03 -1.328952285972745358e+03 -8.654214441596604956e+02 3.850778346055574453e+00
7.631189999999999918e-01 1.234279999999999973e+02 3.157478522527883769e+01 3.027060539758645064e+02 -2.232936755355014569e+01 1.888505623927873103e+02 -1.090265483319818962e+01 -1.695875458361994333e+03 -1.329995245300020542e+03 -8.665390717659352049e+02 3.917636244027521641e+00
7.785360000000000058e-01 1.180100000000000051e+02 3.164468318839777439e+01 2.966285554268982310e+02 -2.166116814432730919e+01 1.854434534859486519e+02 -1.045282105063623668e+01 -1.704614784050226717e+03 -1.330994617769505794e+03 -8.676326413251202894e+02 3.985335217217217618e+00
7.942630000000000523e-01 1.128169999999999931e+02 3.171320789607329615e+01 2.905991660233108860e+02 -2.101077466992123632e+01 1.820439932108509424e+02 -1.001982260315614681e+01 -1.713187466856549463e+03 -1.331955623232409380e+03 -8.687011835696583830e+02 4.053866134381210351e+00
8.103080000000000283e-01 1.078400000000000034e+02 3.178026396341258319e+01 2.846145559568265071e+02 -2.037961842070576068e+01 1.786490635817824000e+02 -9.604980695815346081e+00 -1.721580296962010380e+03 -1.332884660623029959e+03 -8.697436376145869872e+02 4.123240902556886134e+00
8.266769999999999952e-01 1.030750000000000028e+02 3.184579221363118151e+01 2.786895331493822709e+02 -1.975877990699485665e+01 1.752734848192693278e+02 -9.199401708875011963e+00 -1.729777359181736301e+03 -1.333788852174998965e+03 -8.707583829928195200e+02 4.193435365784566216e+00
8.433779999999999610e-01 9.850990000000000180e+01 3.190981667600182448e+01 2.728266638589066702e+02 -1.914904225265116366e+01 1.719195191761653803e+02 -8.803708771191125493e+00 -1.737766444754174699e+03 -1.334674875507416800e+03 -8.717439724264393135e+02 4.264486510062873492e+00
8.604150000000000409e-01 9.413840000000000430e+01 3.197241392574728991e+01 2.670243538881927066e+02 -1.855430383492212698e+01 1.685848251878521182e+02 -8.421601749421634864e+00 -1.745542139153589460e+03 -1.335546469096595956e+03 -8.726994840986681083e+02 4.336387452169553569e+00
8.777970000000000494e-01 8.995340000000000202e+01 3.203370007027879041e+01 2.612756837305863655e+02 -1.798016509956731568e+01 1.652624544517403535e+02 -8.058442515535052308e+00 -1.753110758433555475e+03 -1.336404472289045088e+03 -8.736252229333396144e+02 4.409141596748524350e+00
8.955290000000000195e-01 8.594480000000000075e+01 3.209374000052893194e+01 2.555946917793214936e+02 -1.741751733319757633e+01 1.619663265518789785e+02 -7.704986601571633287e+00 -1.760487398074974408e+03 -1.337245804659462692e+03 -8.745224882862989944e+02 4.482731803906337298e+00
9.136199999999999877e-01 8.210809999999999320e+01 3.215255750845725657e+01 2.499805978719462018e+02 -1.686602806388007281e+01 1.586962469799917415e+02 -7.360936912272190824e+00 -1.767696753996652433e+03 -1.338064582327609060e+03 -8.753938568816165571e+02 4.557192901245985084e+00
9.320760000000000156e-01 7.843699999999999761e+01 3.221012270307912218e+01 2.444364661549030870e+02 -1.632600557918802409e+01 1.554549460413589088e+02 -7.026486090679034291e+00 -1.774764269761569722e+03 -1.338853589540132134e+03 -8.762422534000523910e+02 4.632516463549724683e+00
9.509060000000000290e-01 7.492249999999999943e+01 3.226640423189779483e+01 2.389548114694289325e+02 -1.580441839507368584e+01 1.522348200538434639e+02 -6.708463652968644553e+00 -1.781711187954024808e+03 -1.339607012568826349e+03 -8.770704384963977418e+02 4.708689063692655274e+00
9.701149999999999496e-01 7.155859999999999843e+01 3.232139328899209119e+01 2.335433780477887353e+02 -1.529682905787243641e+01 1.490434681267697101e+02 -6.402320052796298455e+00 -1.788544789463798907e+03 -1.340322771822640107e+03 -8.778798138728938056e+02 4.785735102290141540e+00
9.897129999999999539e-01 6.834059999999999491e+01 3.237513468188388543e+01 2.282058123488541810e+02 -1.480069430248880025e+01 1.458848913747495999e+02 -6.105403602728937784e+00 -1.795262004109257305e+03 -1.341002979861096037e+03 -8.786706774789037127e+02 4.863647373596548640e+00
1.009710000000000107e+00 6.526200000000000045e+01 3.242768916530016554e+01 2.229420429105414030e+02 -1.431596775522154452e+01 1.427595186459025456e+02 -5.817640321101240630e+00 -1.801852448182582066e+03 -1.341652267778588111e+03 -8.794424132095138020e+02 4.942434683172573173e+00
1.030100000000000016e+00 6.231600000000000250e+01 3.247906955529285966e+01 2.177562119106545140e+02 -1.384284220467664817e+01 1.396702618762990653e+02 -5.539064480347705377e+00 -1.808301271248142029e+03 -1.342274813676332087e+03 -8.801937254207720116e+02 5.022067647297787651e+00
1.050910000000000011e+00 5.949730000000000274e+01 3.252934196494545915e+01 2.126380392874114307e+02 -1.338515981130686505e+01 1.366088077483380232e+02 -5.273609945853591441e+00 -1.814610005530489161e+03 -1.342874021966003966e+03 -8.809250650885284131e+02 5.102577538866618134e+00
1.072140000000000093e+00 5.680140000000000100e+01 3.257848424502412144e+01 2.075935947084884674e+02 -1.294131584923031753e+01 1.335804377612244593e+02 -5.019475733426647324e+00 -1.820777283904982141e+03 -1.343450583336288901e+03 -8.816364615070109494e+02 5.183981463761446307e+00
1.093800000000000106e+00 5.422339999999999804e+01 3.262649986125263979e+01 2.026267468558069993e+02 -1.250841444234008826e+01 1.305895260492779073e+02 -4.773747881639462065e+00 -1.826808142675713725e+03 -1.344004343059506709e+03 -8.823286812940528989e+02 5.266246760956916795e+00
1.115899999999999892e+00 5.175809999999999889e+01 3.267340752037177509e+01 1.977372579658258189e+02 -1.208641970935964238e+01 1.276363169274887497e+02 -4.536371244047717965e+00 -1.832708024430668729e+03 -1.344534886126346237e+03 -8.830025761730569229e+02 5.349411674248307769e+00
1.138439999999999896e+00 4.940079999999999671e+01 3.271922251751037436e+01 1.929277517119385266e+02 -1.167551175968715427e+01 1.247228118238575121e+02 -4.307367934616175731e+00 -1.838480652710958566e+03 -1.345041175686341830e+03 -8.836588456072444160e+02 5.433415026662650860e+00
1.161440000000000028e+00 4.714699999999999847e+01 3.276399896922965382e+01 1.881961467123900889e+02 -1.127540319883539155e+01 1.218481583692529995e+02 -4.086509694989097774e+00 -1.844133955359645825e+03 -1.345522859548605993e+03 -8.842987318995768646e+02 5.518327065579936352e+00
1.184900000000000064e+00 4.499249999999999972e+01 3.280774038864105080e+01 1.835407243146851215e+02 -1.088865363769853900e+01 1.190102556292859930e+02 -3.876258009830868545e+00 -1.849669077750074393e+03 -1.345979639984103187e+03 -8.849227485049110555e+02 5.604081281402039316e+00
1.208839999999999915e+00 4.293310000000000315e+01 3.285047678931569948e+01 1.789604156170569524e+02 -1.051433221520395733e+01 1.162092159348114393e+02 -3.675722999720740791e+00 -1.855090024990845450e+03 -1.346412200939949344e+03 -8.855317607391567662e+02 5.690755599995134695e+00
1.233260000000000023e+00 4.096470000000000056e+01 3.289220305467131311e+01 1.744606259737820437e+02 -1.015029248072661083e+01 1.134500745518147369e+02 -3.482649931880953620e+00 -1.860392837504508634e+03 -1.346821976383686888e+03 -8.861257333806191809e+02 5.778267591236112111e+00
1.258170000000000011e+00 3.908359999999999701e+01 3.293293925278506151e+01 1.700410658205119319e+02 -9.796402324688729735e+00 1.107329504217862564e+02 -3.296884121087271691e+00 -1.865572326268295001e+03 -1.347211862302030568e+03 -8.867044341539190100e+02 5.866659456532266503e+00
1.283590000000000009e+00 3.728589999999999804e+01 3.297272579934284664e+01 1.657000617302219894e+02 -9.452393837409179156e+00 1.080572516240326451e+02 -3.118215584894814985e+00 -1.870622110626114591e+03 -1.347586107943805246e+03 -8.872673846289877702e+02 5.955946073428338039e+00
1.309520000000000017e+00 3.556799999999999784e+01 3.301156779271166641e+01 1.614391041617064673e+02 -9.118338280159381526e+00 1.054242151263998011e+02 -2.946632818300326306e+00 -1.875531714524364816e+03 -1.347948827768143474e+03 -8.878134928653339557e+02 6.046085609153776907e+00
1.335970000000000102e+00 3.392669999999999675e+01 3.304948225892358948e+01 1.572576229036462507e+02 -8.794090507913635335e+00 1.028337173166525531e+02 -2.781983839672961256e+00 -1.880296905306428471e+03 -1.348303098659032912e+03 -8.883422249015222860e+02 6.137095965453251090e+00
1.362959999999999949e+00 3.235860000000000269e+01 3.308649733529939851e+01 1.531538886957654881e+02 -8.479471998577725600e+00 1.002849925511425226e+02 -2.624121280496049202e+00 -1.884919993853523238e+03 -1.348650542093174408e+03 -8.888536836035633542e+02 6.228985518407881727e+00
1.390490000000000004e+00 3.086070000000000135e+01 3.312261587980588473e+01 1.491285220121254440e+02 -8.175013480334467175e+00 9.777847271303882337e+01 -2.473503400522064410e+00 -1.889405292584972813e+03 -1.348990636945329697e+03 -8.893481780701245043e+02 6.321718906390736414e+00
1.418579999999999952e+00 2.943009999999999948e+01 3.315786879565120415e+01 1.451782567412539322e+02 -7.881330825807214779e+00 9.531191605352670138e+01 -2.330810194668150537e+00 -1.893764140857649636e+03 -1.349321752625761974e+03 -8.898268452857302009e+02 6.415336957019831310e+00
1.447240000000000082e+00 2.806370000000000076e+01 3.319227295974727809e+01 1.413060109808145910e+02 -7.596487456623150614e+00 9.288860027127957153e+01 -2.194087134837710451e+00 -1.898006434322363930e+03 -1.349641838824251408e+03 -8.902907492301109187e+02 6.509829934808101903e+00
1.476480000000000015e+00 2.675880000000000081e+01 3.322584258748540265e+01 1.375116296865460868e+02 -7.320383869813922750e+00 9.050875020279933381e+01 -2.063225571903400279e+00 -1.902139379413175902e+03 -1.349949587560421605e+03 -8.907407337748791178e+02 6.605163217955409394e+00
1.506299999999999972e+00 2.551259999999999906e+01 3.325858195963636632e+01 1.337955931834602836e+02 -7.052932409268164449e+00 8.817284246438026685e+01 -1.938104254610313548e+00 -1.906165724142147383e+03 -1.350244572722101793e+03 -8.911771972470189667e+02 6.701318100053324400e+00
1.536729999999999929e+00 2.432270000000000110e+01 3.329052736933947898e+01 1.301548589153187834e+02 -6.793793138286811306e+00 8.587915413587882085e+01 -1.818468981082279834e+00 -1.910091102784720306e+03 -1.350526978694407035e+03 -8.916008589344519351e+02 6.798348125384070961e+00
1.567779999999999951e+00 2.318669999999999831e+01 3.332169292534992877e+01 1.265896196145184120e+02 -6.542865123270320993e+00 8.362824804901003972e+01 -1.704213537448062921e+00 -1.913918394161467631e+03 -1.350796718448351612e+03 -8.920121555233426989e+02 6.896239017413218875e+00
1.599450000000000038e+00 2.210219999999999985e+01 3.335208243454746935e+01 1.231006224268620031e+02 -6.300036375203302619e+00 8.142088407542115647e+01 -1.595193922384221086e+00 -1.917650422726196894e+03 -1.351053209097661693e+03 -8.924115461172414143e+02 6.994944714934390184e+00
1.631760000000000099e+00 2.106709999999999994e+01 3.338171899770933493e+01 1.196862198486794711e+02 -6.065062311180455801e+00 7.925625399603053722e+01 -1.491218148652934117e+00 -1.921293077202263476e+03 -1.351295752616559412e+03 -8.927998637536003343e+02 7.094481011058613618e+00
1.664719999999999978e+00 2.007890000000000086e+01 3.341061629671796851e+01 1.163460412601448155e+02 -5.837826332907890325e+00 7.713436032505458684e+01 -1.392162759146074125e+00 -1.924850294779129854e+03 -1.351523743322321934e+03 -8.931777747122041546e+02 7.194822769114376015e+00
1.698350000000000026e+00 1.913579999999999970e+01 3.343879581226809705e+01 1.130784528512742924e+02 -5.618038770941222282e+00 7.505437579302650875e+01 -1.297794573063361989e+00 -1.928324438443461304e+03 -1.351737466422903935e+03 -8.935457901245218864e+02 7.295992981477395389e+00
1.732660000000000089e+00 1.823590000000000089e+01 3.346626973974937869e+01 1.098833647102733408e+02 -5.405554025945336960e+00 7.301661691653178821e+01 -1.207977960696880793e+00 -1.931713750667352315e+03 -1.351938146644340122e+03 -8.939039597786792228e+02 7.397973159258055986e+00
1.767660000000000009e+00 1.737699999999999889e+01 3.349305061495457636e+01 1.067603474341434691e+02 -5.200222463408639584e+00 7.102104148782190407e+01 -1.122568674011570122e+00 -1.935014065337200918e+03 -1.352127905675743705e+03 -8.942520158049692327e+02 7.500743352398127506e+00
1.803369999999999918e+00 1.655740000000000123e+01 3.351915764499064210e+01 1.037077853100094700e+02 -5.001791095515340402e+00 6.906677128893018391e+01 -1.041365160800357126e+00 -1.938221199154274927e+03 -1.352309341806781049e+03 -8.945895992120659912e+02 7.604311740326238578e+00
1.839800000000000102e+00 1.577549999999999919e+01 3.354460245593013923e+01 1.007253225514740365e+02 -4.810111383319503275e+00 6.715383787688234918e+01 -9.642262172399334030e-01 -1.941331747527558491e+03 -1.352484530460898895e+03 -8.949163555614613870e+02 7.708655883589924152e+00
1.876970000000000027e+00 1.502940000000000076e+01 3.356940357142459419e+01 9.781164603069464647e+01 -4.624951951749089574e+00 6.528162655024165417e+01 -8.909689911172530286e-01 -1.944345589483884396e+03 -1.352654825052070692e+03 -8.952322320033778169e+02 7.813780788701587987e+00
1.914889999999999981e+00 1.431789999999999985e+01 3.359357178848833314e+01 9.496639352188047667e+01 -4.446133440994416652e+00 6.345018296251488010e+01 -8.214332714395586876e-01 -1.947263902700509789e+03 -1.352820823928501795e+03 -8.955372906203634784e+02 7.919650905852249068e+00
1.953570000000000029e+00 1.363899999999999935e+01 3.361711793267052428e+01 9.218912918271961132e+01 -4.273514290413795713e+00 6.165944380773050426e+01 -7.554862336591993133e-01 -1.950089867696552574e+03 -1.352982454407311707e+03 -8.958318100370737511e+02 8.026246906961411298e+00
1.993039999999999923e+00 1.299160000000000004e+01 3.364006476060393425e+01 8.947767342032810234e+01 -4.106814565429713682e+00 5.990814691326643526e+01 -6.929246833175164433e-01 -1.952828807438664398e+03 -1.353139422039434066e+03 -8.961163071630385275e+02 8.133598020750181234e+00
2.033300000000000107e+00 1.237400000000000055e+01 3.366241683411389829e+01 8.683233820194217856e+01 -3.945935409037896857e+00 5.819675354098789910e+01 -6.336432818309039039e-01 -1.955484603175678785e+03 -1.353291000256042025e+03 -8.963911813187605730e+02 8.241648694759014404e+00
2.074370000000000047e+00 1.178519999999999968e+01 3.368418954233420948e+01 8.425157484589604451e+01 -3.790650015144926499e+00 5.652435027388647626e+01 -5.774603730200410512e-01 -1.958062925233154374e+03 -1.353436327892736927e+03 -8.966570562472747952e+02 8.350396773516965965e+00
2.116280000000000161e+00 1.122359999999999935e+01 3.370540289929898847e+01 8.173393349036791733e+01 -3.640743502253821706e+00 5.489030161740545566e+01 -5.242275462603622760e-01 -1.960569880765835023e+03 -1.353574513623544817e+03 -8.969146427270623008e+02 8.459853605397103848e+00
2.159030000000000005e+00 1.068810000000000038e+01 3.372606123615743456e+01 7.927940375110850368e+01 -3.496101535373585367e+00 5.329473623226760282e+01 -4.738199559572148778e-01 -1.963009377112898392e+03 -1.353704597895741017e+03 -8.971644666159160124e+02 8.569949170490026802e+00
2.202650000000000219e+00 1.017759999999999998e+01 3.374618358627794379e+01 7.688623532498563407e+01 -3.356471089141501274e+00 5.173671670698920622e+01 -4.260594653583986147e-01 -1.965385229457466721e+03 -1.353826263995387308e+03 -8.974070703037764360e+02 8.680720352477321100e+00
2.247139999999999915e+00 9.690870000000000317e+00 3.376577456431826363e+01 7.455352521138463828e+01 -3.222402749905071584e+00 5.021551019232278179e+01 -3.814921694646910555e-01 -1.967697299396124663e+03 -1.353939849444961510e+03 -8.976425785811402420e+02 8.792098124812321558e+00
2.292539999999999800e+00 9.226820000000000022e+00 3.378485599140987716e+01 7.227910885799759910e+01 -3.093493140878806003e+00 4.872987895032365913e+01 -3.398012229566061415e-01 -1.969945425344365731e+03 -1.354046517174965174e+03 -8.978710759571279141e+02 8.904095915818482254e+00
2.338849999999999874e+00 8.784499999999999531e+00 3.380343215509613941e+01 7.006378894428344495e+01 -2.969161460481553938e+00 4.728080374146998821e+01 -3.004061039982683923e-01 -1.972126727159821030e+03 -1.354147604365247162e+03 -8.980923226533387833e+02 9.016682733337551880e+00
2.386099999999999888e+00 8.362890000000000157e+00 3.382151945975397211e+01 6.790600316850921558e+01 -2.849207008503066518e+00 4.586741026960049084e+01 -2.631636448000525541e-01 -1.974240265423188703e+03 -1.354244404906937461e+03 -8.983062311227548662e+02 9.129825694976101857e+00
2.434299999999999908e+00 7.961039999999999672e+00 3.383912618355479651e+01 6.580512651521374323e+01 -2.733480438092577458e+00 4.448944468063649538e+01 -2.279514973637050690e-01 -1.976285200425925495e+03 -1.354337859598429759e+03 -8.985126991353150743e+02 9.243514493755366601e+00
2.483480000000000132e+00 7.578059999999999796e+00 3.385626747706727002e+01 6.375966068606968662e+01 -2.621789040309088659e+00 4.314605560901458858e+01 -1.946312677101680599e-01 -1.978262730029530303e+03 -1.354428559051438469e+03 -8.987118107627645713e+02 9.357714650163952541e+00
2.533650000000000180e+00 7.213090000000000224e+00 3.387295095370434694e+01 6.176913116310225860e+01 -2.514007138000901698e+00 4.183710835474123968e+01 -1.630992074369446709e-01 -1.980174707674511183e+03 -1.354516549911511447e+03 -8.989037257422280618e+02 9.472413255179937153e+00
2.584830000000000183e+00 6.865310000000000024e+00 3.388918775413718265e+01 5.983108896111941277e+01 -2.410815066451940325e+00 4.056064969181279878e+01 -1.340781800889351560e-01 -1.982024757306436413e+03 -1.354601391715113323e+03 -8.990888019304982208e+02 9.587538437150971760e+00
2.637049999999999894e+00 6.533940000000000303e+00 3.390499143554057326e+01 5.794469020691406058e+01 -2.311784462234806270e+00 3.931642219356154300e+01 -1.071918021556847039e-01 -1.983817551662348023e+03 -1.354682359735081491e+03 -8.992675424611273911e+02 9.703113831889076835e+00
2.690319999999999823e+00 6.218210000000000015e+00 3.392036906062630663e+01 5.611027804085419746e+01 -2.216201100017675785e+00 3.810510205523890193e+01 -8.174885441538240483e-02 -1.985556471604898661e+03 -1.354758815727321689e+03 -8.994403459430438943e+02 9.819081941837229266e+00
2.744660000000000100e+00 5.917410000000000281e+00 3.393533080095969012e+01 5.432663603984184419e+01 -2.123917208032324755e+00 3.692594163760399084e+01 -5.764320924337174024e-02 -1.987244253153653972e+03 -1.354830415048663781e+03 -8.996075591861266503e+02 9.935380127797145633e+00
2.800110000000000099e+00 5.630840000000000067e+00 3.394989158292325016e+01 5.259227067203725170e+01 -2.034766042336224601e+00 3.577808968199138917e+01 -3.476508691259609651e-02 -1.988882790896383540e+03 -1.354897287369392643e+03 -8.997694412167542168e+02 1.005202871815334298e+01
2.856679999999999886e+00 5.357850000000000001e+00 3.396405794675022349e+01 5.090486267298061307e+01 -1.949892432717000634e+00 3.465953821962379777e+01 -1.428320250060837078e-02 -1.990471828645951973e+03 -1.354959919169588375e+03 -8.999260167394832024e+02 1.016896512702216882e+01
2.914390000000000036e+00 5.097809999999999953e+00 3.397783901156677189e+01 4.926492551300666634e+01 -1.868152338442516491e+00 3.357122438694170796e+01 4.906489827658886728e-03 -1.992010604668628048e+03 -1.355019105004354060e+03 -9.000772289440614031e+02 1.028614111358756134e+01
2.973259999999999792e+00 4.850139999999999674e+00 3.399124365669131720e+01 4.767184122500195542e+01 -1.789157121102036729e+00 3.251294274954373265e+01 2.315833668838258863e-02 -1.993498528563176706e+03 -1.355075610067983689e+03 -9.002230110047520384e+02 1.040350628085928264e+01
3.033319999999999794e+00 4.614270000000000316e+00 3.400428250311647815e+01 4.612440968224265703e+01 -1.712815315794518956e+00 3.148397638282239797e+01 4.052271663089378195e-02 -1.994936258074474154e+03 -1.355129883727105835e+03 -9.003634097980558408e+02 1.052102746297770253e+01
3.094599999999999795e+00 4.389619999999999855e+00 3.401696587448974185e+01 4.461935756806632014e+01 -1.640480628751559866e+00 3.048152530384358627e+01 5.559960153095151042e-02 -1.996325448614238894e+03 -1.355182015295961492e+03 -9.004985756788901199e+02 1.063866788896192617e+01
3.157119999999999926e+00 4.175699999999999967e+00 3.402930171521620650e+01 4.315824047103851768e+01 -1.570474199749023025e+00 2.950751852465660008e+01 7.003419147634756814e-02 -1.997668304203659090e+03 -1.355231793445213498e+03 -9.006287276203696592e+02 1.075636856021022858e+01
3.220899999999999874e+00 3.972010000000000041e+00 3.404129768407845091e+01 4.174030873097316885e+01 -1.502687904177359313e+00 2.856157333379862351e+01 8.390347686668415961e-02 -1.998967357375816391e+03 -1.355278860895735306e+03 -9.007541350408471317e+02 1.087406834929101862e+01
3.285960000000000214e+00 3.778039999999999843e+00 3.405296143649094631e+01 4.036265931776780747e+01 -1.438290097873700324e+00 2.764115737947696161e+01 9.600466311444778855e-02 -2.000224891277967572e+03 -1.355322905645451783e+03 -9.008750563629311046e+02 1.099170397111968356e+01
3.352339999999999876e+00 3.593370000000000175e+00 3.406430376078039046e+01 3.902544234714930838e+01 -1.376183225115669373e+00 2.674691348869268381e+01 1.073863217727229480e-01 -2.001442691311143562e+03 -1.355363886589146432e+03 -9.009916982579175055e+02 1.110923434249043495e+01
3.420059999999999878e+00 3.417549999999999866e+00 3.407533167868520962e+01 3.772847943412052274e+01 -1.315953192400831417e+00 2.587900057461587622e+01 1.184344122165977564e-01 -2.002621167386124171e+03 -1.355402058227411089e+03 -9.011041187234918652e+02 1.122657436596914593e+01
3.489160000000000039e+00 3.250160000000000160e+00 3.408605522526574561e+01 3.646836161636710472e+01 -1.258999306337242219e+00 2.503446818107428484e+01 1.277039785346400502e-01 -2.003760694820600293e+03 -1.355437821500510154e+03 -9.012123584171539505e+02 1.134370507858690935e+01
3.559639999999999915e+00 3.090819999999999901e+00 3.409647787654233753e+01 3.524694724545502567e+01 -1.203746666168257873e+00 2.421538190023662906e+01 1.367521485272356618e-01 -2.004861091066539757e+03 -1.355471511723719686e+03 -9.013163886305961796e+02 1.146048470644572426e+01
3.631549999999999834e+00 2.939150000000000151e+00 3.410661057579957856e+01 3.406188933108376204e+01 -1.150718715717534701e+00 2.341988816343245006e+01 1.450087113717688780e-01 -2.005923436391525911e+03 -1.355503346033609432e+03 -9.014163008371640444e+02 1.157689181145369872e+01
3.704909999999999926e+00 2.794779999999999820e+00 3.411645954003795822e+01 3.291228189198652387e+01 -1.100007851642958334e+00 2.264738908355225533e+01 1.523505657203530761e-01 -2.006948945375639369e+03 -1.355533294212974170e+03 -9.015122028436471737e+02 1.169281586957306018e+01
3.779760000000000009e+00 2.657379999999999853e+00 3.412603343546323487e+01 3.179812605917404866e+01 -1.050820251128271154e+00 2.189829250207296241e+01 1.595327921891570300e-01 -2.007939489524339706e+03 -1.355561193968859243e+03 -9.016042791611127996e+02 1.180821230265448207e+01
3.856110000000000149e+00 2.526609999999999800e+00 3.413533696629801284e+01 3.071722619291534073e+01 -1.004213234592606252e+00 2.117064953762594826e+01 1.654746955702227351e-01 -2.008896342058137407e+03 -1.355586891347610162e+03 -9.016926570821174209e+02 1.192293655763711513e+01
3.934009999999999785e+00 2.402159999999999851e+00 3.414437940843058072e+01 2.967035949651229387e+01 -9.587571799856607901e-01 2.046566448113206249e+01 1.715640051162581059e-01 -2.009820859501176756e+03 -1.355610376539012350e+03 -9.017774700777480348e+02 1.203693097682409530e+01
4.013480000000000381e+00 2.283729999999999816e+00 3.415316632834349519e+01 2.865473299631086590e+01 -9.158339838913814868e-01 1.978082583678777695e+01 1.763918136090477373e-01 -2.010713597450095676e+03 -1.355631751975801308e+03 -9.018587678146828921e+02 1.215008487227361655e+01
4.094560000000000421e+00 2.171040000000000081e+00 3.416170520101548647e+01 2.767159938345540127e+01 -8.739044502126354086e-01 1.911774393484394707e+01 1.814615722824841626e-01 -2.011575049091410847e+03 -1.355651210723126951e+03 -9.019365799754408499e+02 1.226230050579278696e+01
4.177270000000000039e+00 2.063810000000000144e+00 3.417000127983955338e+01 2.671822808546442829e+01 -8.342908243083966280e-01 1.847395885289302342e+01 1.854245782175505397e-01 -2.012405677467638270e+03 -1.355668868560349893e+03 -9.020109287190746272e+02 1.237344699347096366e+01
4.261660000000000004e+00 1.961780000000000079e+00 3.417806263602448524e+01 2.579539978323913374e+01 -7.957024581010541109e-01 1.785061944355335939e+01 1.895354617539421194e-01 -2.013206547825928737e+03 -1.355684731165065386e+03 -9.020818902421508483e+02 1.248342843229153942e+01
4.347749999999999559e+00 1.864710000000000090e+00 3.418589409516046373e+01 2.490111467886059415e+01 -7.590212713246141663e-01 1.724597979058247077e+01 1.928873176324608640e-01 -2.013978566820487458e+03 -1.355698721052971678e+03 -9.021495215950207012e+02 1.259209382769272345e+01
4.435579999999999856e+00 1.772370000000000001e+00 3.419350231361271852e+01 2.403547909299139462e+01 -7.235476860529478360e-01 1.666046406112689482e+01 1.961487792970144084e-01 -2.014722847230823163e+03 -1.355710715196492401e+03 -9.022138819114668422e+02 1.269930086821069715e+01
4.525190000000000268e+00 1.684520000000000017e+00 3.420089353826141121e+01 2.319745027283800454e+01 -6.894248395079357605e-01 1.609333473083409061e+01 1.991446597999853851e-01 -2.015440208605580892e+03 -1.355720638884122764e+03 -9.022749707472562477e+02 1.280494022974888324e+01
4.616600000000000037e+00 1.600959999999999939e+00 3.420807228614511786e+01 2.238607917923057755e+01 -6.568120652882805111e-01 1.554387903067934928e+01 2.016939800665501492e-01 -2.016131011083451540e+03 -1.355728347307032664e+03 -9.023326729429436455e+02 1.290879964721692552e+01
4.709869999999999557e+00 1.521470000000000100e+00 3.421504602006248064e+01 2.160117075585262469e+01 -6.251732548109044663e-01 1.501224741999215517e+01 2.042964781457229928e-01 -2.016795668439071278e+03 -1.355733565654726135e+03 -9.023868964149448857e+02 1.301077195223140492e+01
4.805010000000000225e+00 1.445859999999999923e+00 3.422181822769447734e+01 2.084154909048156767e+01 -5.949045526287298769e-01 1.449746241031209415e+01 2.065365916023209902e-01 -2.017433718670989492e+03 -1.355735942370117300e+03 -9.024377573334579665e+02 1.311063611745712798e+01
4.902079999999999771e+00 1.373950000000000005e+00 3.422839586492592900e+01 2.010647644411605839e+01 -5.658063364649575933e-01 1.399911192619352107e+01 2.085810603787767170e-01 -2.018044285863730693e+03 -1.355735974583698635e+03 -9.024855873030905968e+02 1.320820946742326640e+01
5.001109999999999722e+00 1.305560000000000054e+00 3.423478356875335749e+01 1.939576979854156846e+01 -5.376203554047482847e-01 1.351724777578155567e+01 2.106649322111608380e-01 -2.018626371036619275e+03 -1.355735189629503338e+03 -9.025300073659323061e+02 1.330329397253258428e+01
5.102140000000000342e+00 1.240520000000000067e+00 3.424098648720615756e+01 1.870854905141692726e+01 -5.104171314643141111e-01 1.305124729742665224e+01 2.126908529303370432e-01 -2.019181137630035437e+03 -1.355733037873726516e+03 -9.025711562325642490e+02 1.339564959935064081e+01
5.205210000000000115e+00 1.178670000000000107e+00 3.424700958720146104e+01 1.804379826274724508e+01 -4.843865864131478571e-01 1.260034508842224987e+01 2.144434405151632583e-01 -2.019711490545478910e+03 -1.355727657297253472e+03 -9.026092930582408371e+02 1.348505354999116790e+01
5.310360000000000191e+00 1.119860000000000078e+00 3.425285771473878782e+01 1.740142175326019824e+01 -4.591501632763081986e-01 1.216468718785212388e+01 2.162769044658495454e-01 -2.020219593216054591e+03 -1.355718746680074446e+03 -9.026439189373735417e+02 1.357125578681774769e+01
5.417629999999999946e+00 1.063930000000000042e+00 3.425853552273762404e+01 1.678071972650328547e+01 -4.346866012751341990e-01 1.174381242219108046e+01 2.181872304067540846e-01 -2.020706410282461320e+03 -1.355706657951601073e+03 -9.026748733355104832e+02 1.365394620413272619e+01
5.527079999999999771e+00 1.010760000000000103e+00 3.426404849890955973e+01 1.618097407933763421e+01 -4.109605757789057123e-01 1.133726756418818304e+01 2.201824832307574809e-01 -2.021172440911686181e+03 -1.355691526074079093e+03 -9.027022565012387076e+02 1.373285322927872620e+01
5.638729999999999798e+00 9.602009999999999712e-01 3.426939999456103436e+01 1.560184067363350913e+01 -3.879302094048486249e-01 1.094489653312789024e+01 2.222850416606468316e-01 -2.021617753878397934e+03 -1.355673202722823362e+03 -9.027260690081118355e+02 1.380762964313717767e+01
5.752640000000000420e+00 9.121350000000000291e-01 3.427459518723081544e+01 1.504233513675841571e+01 -3.656823061894323157e-01 1.056597064464538960e+01 2.243807177994175950e-01 -2.022042457634194079e+03 -1.355651380207445982e+03 -9.027461965765604646e+02 1.387792942431902610e+01
5.868850000000000122e+00 8.664399999999999880e-01 3.427963809794072603e+01 1.450229676324860861e+01 -3.439844885798830076e-01 1.020054280474774977e+01 2.266793510189570593e-01 -2.022446429394155530e+03 -1.355625638075741108e+03 -9.027624156891680514e+02 1.394333804749299688e+01
5.987409999999999677e+00 8.230009999999999826e-01 3.428453305889128444e+01 1.398119336584572459e+01 -3.227807334891972246e-01 9.848304753927731525e+00 2.292130618244809792e-01 -2.022829501023210923e+03 -1.355595499346870156e+03 -9.027744550845534377e+02 1.400345558778112931e+01
6.108360000000000234e+00 7.817089999999999872e-01 3.428928387374747189e+01 1.347858424469398564e+01 -3.019995273144653325e-01 9.509026074179846688e+00 2.320294927949767549e-01 -2.023191234149896445e+03 -1.355560331141920869e+03 -9.027819338128330173e+02 1.405777232611466232e+01
6.231760000000000410e+00 7.424589999999999801e-01 3.429389499256527074e+01 1.299398495576829404e+01 -2.815685241890997781e-01 9.182450908162225645e+00 2.351758829472155310e-01 -2.023531108877303723e+03 -1.355519408666701111e+03 -9.027844124376214268e+02 1.410578756478754947e+01
6.357649999999999579e+00 7.051500000000000545e-01 3.429836995760525298e+01 1.252703270898157228e+01 -2.614043702949160330e-01 8.868418666952042173e+00 2.387121447613055614e-01 -2.023848257283590328e+03 -1.355471822863663192e+03 -9.027813242679990253e+02 1.414690745044434550e+01
6.486089999999999911e+00 6.696889999999999787e-01 3.430271289248805999e+01 1.207729714365714457e+01 -2.414167980221539056e-01 8.566723678465990588e+00 2.427021267126883153e-01 -2.024141588253655073e+03 -1.355416475551891381e+03 -9.027719820373966968e+02 1.418050322959564191e+01
6.617110000000000269e+00 6.359869999999999690e-01 3.430692675040804573e+01 1.164453040817103791e+01 -2.215039375914312492e-01 8.277306616194902489e+00 2.472244585171044506e-01 -2.024409493838595154e+03 -1.355351983536403395e+03 -9.027555032894147189e+02 1.420583664525548251e+01
6.750790000000000290e+00 6.039579999999999949e-01 3.431101603253978993e+01 1.122832460133072097e+01 -2.015655227609181033e-01 8.000002385490176948e+00 2.523497236940387412e-01 -2.024649992253695018e+03 -1.355276621056618296e+03 -9.027307884597476004e+02 1.422211329656742862e+01
6.887159999999999727e+00 5.735200000000000298e-01 3.431498352274851982e+01 1.082847411540287297e+01 -1.815365784463069954e-01 7.734796826023614180e+00 2.581170613535483382e-01 -2.024860212824373093e+03 -1.355188156970287309e+03 -9.026963941093561061e+02 1.422838233810999853e+01
7.026290000000000369e+00 5.445950000000000513e-01 3.431883311022538408e+01 1.044486650785113824e+01 -1.611836620394831165e-01 7.481812651494395894e+00 2.647281633806478074e-01 -2.025036526612164607e+03 -1.355083779055495370e+03 -9.026504998368335464e+02 1.422361395376063165e+01
7.168230000000000324e+00 5.171090000000000408e-01 3.432256793464749478e+01 1.007748635428115769e+01 -1.403255009908079554e-01 7.241253676651992599e+00 2.723325449570190293e-01 -2.025173992877833371e+03 -1.354959826415923544e+03 -9.025907197270113329e+02 1.420661379784184319e+01
7.313039999999999985e+00 4.909910000000000108e-01 3.432619132429911701e+01 9.726384571412413749e+00 -1.187398877321974855e-01 7.013406634297642661e+00 2.811167180991035464e-01 -2.025265827303220703e+03 -1.354811379609073811e+03 -9.025138358252196440e+02 1.417597274115925998e+01
7.460770000000000124e+00 4.661739999999999773e-01 3.432970623820902745e+01 9.391588933343838264e+00 -9.628563968077040458e-02 6.798537150824884634e+00 2.911830229190246477e-01 -2.025302908220957534e+03 -1.354631956572560512e+03 -9.024155937906125473e+02 1.413009827611498359e+01
7.611489999999999867e+00 4.425959999999999894e-01 3.433311602518483596e+01 9.073504466121363521e+00 -7.262057094513853228e-02 6.597317951721868745e+00 3.028282366530552494e-01 -2.025272411154446900e+03 -1.354412553291514769e+03 -9.022900695449984596e+02 1.406707675144250658e+01
7.765249999999999986e+00 4.201949999999999852e-01 3.433642342780625256e+01 8.772926783314877852e+00 -4.728575177027355414e-02 6.410818031414552642e+00 3.164605078745615363e-01 -2.025156235840914633e+03 -1.354140638599767044e+03 -9.021289970596915282e+02 1.398465609351293715e+01
7.922119999999999607e+00 3.989130000000000176e-01 3.433963154904704140e+01 8.490582095805315532e+00 -1.994330141979620136e-02 6.240079853738352611e+00 3.323563835352046913e-01 -2.024927848864376301e+03 -1.353797983589097839e+03 -9.019203303459748895e+02 1.388007729480959007e+01
8.082169999999999632e+00 3.786950000000000038e-01 3.434274334929353500e+01 8.228154583152763379e+00 1.015010233174818387e-02 6.087141774850104881e+00 3.511854766878670375e-01 -2.024548104063248957e+03 -1.353357883419414520e+03 -9.016463942351546166e+02 1.375002526291890881e+01
8.245430000000000703e+00 3.594890000000000030e-01 3.434576095334251278e+01 7.987802297421617403e+00 4.373417445062172809e-02 5.954545652001624667e+00 3.735993257618391850e-01 -2.023956326206006679e+03 -1.352779227834982066e+03 -9.012799351715110561e+02 1.359036480313733719e+01
8.412000000000000810e+00 3.412439999999999918e-01 3.434868769562571345e+01 7.772930893455292534e+00 8.201648942932823760e-02 5.846205295858446505e+00 4.006884814408133155e-01 -2.023054946480386661e+03 -1.351996092798683321e+03 -9.007772063846913397e+02 1.339579560792548385e+01
8.581929999999999836e+00 3.239130000000000065e-01 3.435152589262231970e+01 7.588673120608416589e+00 1.265107641841391739e-01 5.767844891008672370e+00 4.338177001361392393e-01 -2.021679139500070050e+03 -1.350897567556280137e+03 -9.000645230068001865e+02 1.315946081355627584e+01
8.755300000000000082e+00 3.074529999999999763e-01 3.435427828808639106e+01 7.443568133046594149e+00 1.797152728565665214e-01 5.728790879002796821e+00 4.752801084056471059e-01 -2.019532129449743024e+03 -1.349284423703583343e+03 -8.990094107898651146e+02 1.287211775289026505e+01
8.932169999999999277e+00 2.918180000000000218e-01 3.435694721480358282e+01 7.351694371466589217e+00 2.453349130120371924e-01 5.744180755678696570e+00 5.284891533659920038e-01 -2.016033755144695306e+03 -1.346768007201516639e+03 -8.973532393295364500e+02 1.252086384287540355e+01
9.112610000000000099e+00 2.769690000000000207e-01 3.435953508089632891e+01 7.338331579659746140e+00 3.295913591355757455e-01 5.840841635843244006e+00 5.992241355003078418e-01 -2.009921998548774582e+03 -1.342504152396675863e+03 -8.945339293035980290e+02 1.208672684670315256e+01
9.296699999999999520e+00 2.628659999999999886e-01 3.436204434122293350e+01 7.454300893767045189e+00 4.441173575924947658e-01 6.072047430844865978e+00 6.983864867977087609e-01 -1.997984323906935515e+03 -1.334346544486695620e+03 -8.891218444500975693e+02 1.153958108968428320e+01
9.484510000000000218e+00 2.494719999999999993e-01 3.436447722604943777e+01 7.818266241256161209e+00 6.133007470113756021e-01 6.560826673402204712e+00 8.489913468606750113e-01 -1.969847622603783520e+03 -1.315371655165599350e+03 -8.765042698505384351e+02 1.082625329809834369e+01
9.676099999999999923e+00 2.367529999999999912e-01 3.436683575857220774e+01 8.798032123087331513e+00 9.002793207152646193e-01 7.684458302568289767e+00 1.110935404631396395e+00 -1.873889436197707482e+03 -1.251150524041705467e+03 -8.337362584400618744e+02 9.833483106947106478e+00
9.871579999999999799e+00 2.246740000000000126e-01 3.436912251148562802e+01 1.202901228494624064e+01 1.316559270030386752e+00 1.110904305571830974e+01 1.481888228669777430e+00 -1.002226733864252651e+03 -6.697351538555543584e+02 -4.462020759709341178e+02 8.198677914263999611e+00
